tree
version=v3
num_class=1
num_tree_per_iteration=1
label_index=0
max_feature_idx=18
objective=binary sigmoid:1
feature_names=LIMIT_BAL PAY_0 PAY_2 PAY_3 PAY_4 PAY_5 PAY_6 BILL_AMT1 BILL_AMT2 BILL_AMT3 BILL_AMT4 BILL_AMT5 BILL_AMT6 PAY_AMT1 PAY_AMT2 PAY_AMT3 PAY_AMT4 PAY_AMT5 PAY_AMT6
feature_infos=[10000:1000000] 3:2:4:1:5:6:7:8:11:9:10 3:2:5:1:6:7:8:4:10:9 3:2:1:5:6:7:10:8:9 3:2:1:5:6:7:10:8:9 3:2:1:5:6:7:10:8:9 3:2:1:5:6:7:10:9:8 [-165580:964511] [-69777:983931] [-61506:1664089] [-170000:891586] [-81334:927171] [-209051:961664] [0:873552] [0:1684259] [0:896040] [0:621000] [0:426529] [0:527143]
tree_sizes=855 860 858 860 860 856 864 860 865 861 860 853 843 868 865 848 867 843 844 867 845 855 853 848 843 841 870 831 844 844 846 849 856 850 854 871 848 860 849 859 847 848 861 860 843 847 847 853 836 830 857 860 835 854 876 862 847 850 833 853 846 849 852 869 849 851 849 865 855 849 862 869 865 851 851 839 863 875 855 868 854 865 863 857 870 859 841 826 872 865 851 866 868 870 871 869 851 881 858 872

Tree=0
num_leaves=7
num_cat=1
split_feature=3 13 0 8 13 0
split_gain=1201.95 920.088 362.914 267.043 167.071 150.685
threshold=0 2000.5000000000002 145000.00000000003 122929.50000000001 50.500000000000007 125000.00000000001
decision_type=9 2 2 2 2 2
left_child=1 4 -3 -4 -1 -6
right_child=-2 2 3 -5 5 -7
leaf_value=-1.0388820751208487 -1.0308187335668308 -1.0533774239093552 -1.0814241715924571 -1.05914847314288 -1.0446052541155493 -1.0582132745285291
leaf_weight=7956.1591769009829 13515.761840492487 5202.9227960109711 3117.7040422707796 2366.7899209260941 6847.6998764276505 2894.1084999591112
leaf_count=2951 2834 3408 3756 1818 3308 2170
internal_value=0 3.98254 3.75226 3.57278 4.12385 4.03604
internal_weight=0 28385.4 10687.4 5484.49 17698 9741.81
internal_count=20245 17411 8982 5574 8429 5478
cat_boundaries=0 1
cat_threshold=270
shrinkage=1


Tree=1
num_leaves=7
num_cat=1
split_feature=1 14 15 14 7 16
split_gain=1982.1 503.472 245.049 185.911 97.1032 86.7413
threshold=0 1500.5000000000002 575.50000000000011 16743.000000000004 966.00000000000011 2999.0000000000005
decision_type=1 2 2 2 2 2
left_child=1 5 -3 -4 -2 -1
right_child=4 2 3 -5 -6 -7
leaf_value=0.17367370546913721 0.17843393823188 0.17219104910942007 0.15601860625894301 0.12866068543610529 0.18764948908069845 0.15841526505903247
leaf_weight=9854.1185217499733 3352.8957695364952 2336.6879513710737 9669.2130314856768 663.60000865161419 19383.535599380732 1028.6487879604101
leaf_count=4582 1232 1205 8198 933 3311 784
internal_value=0 3.28548 3.15137 3.08523 3.72417 3.44463
internal_weight=0 23552.3 12669.5 10332.8 22736.4 10882.8
internal_count=20245 15702 10336 9131 4543 5366
cat_boundaries=0 1
cat_threshold=2318
shrinkage=0.05


Tree=2
num_leaves=7
num_cat=1
split_feature=1 16 0 8 17 15
split_gain=1402.01 424.616 223.299 174.654 80.0351 61.588
threshold=0 1500.5000000000002 195000.00000000003 218205.50000000003 1000.5000000000001 625.50000000000011
decision_type=1 2 2 2 2 2
left_child=1 5 4 -4 -3 -1
right_child=-2 2 3 -5 -6 -7
leaf_value=0.15361905065393758 0.16263538248798742 0.15160988107752427 0.12246986965671702 0.14722145519911559 0.13935703638604899 0.14721676089949329
leaf_weight=7204.4095692932606 24782.591582611203 1901.3054534494877 3166.6457944512367 919.70480571687222 4456.7712224125862 7848.5415826588869
leaf_count=2958 4549 920 3511 564 3316 4427
internal_value=0 2.89699 2.7432 2.56081 2.86042 3.00562
internal_weight=0 25497.4 10444.4 4086.35 6358.08 15053
internal_count=20245 15696 8311 4075 4236 7385
cat_boundaries=0 1
cat_threshold=2318
shrinkage=0.05


Tree=3
num_leaves=7
num_cat=1
split_feature=1 14 0 17 14 7
split_gain=1129.66 345.685 201.19 137.884 86.1948 60.2382
threshold=0 1600.5000000000002 245000.00000000003 18211.000000000004 15139.000000000002 966.00000000000011
decision_type=1 2 2 2 2 2
left_child=1 -1 4 -4 -3 -2
right_child=5 2 3 -5 -6 -7
leaf_value=0.13579348900331631 0.1397928499544577 0.12851044067839637 0.11591846778692363 0.074800253205662207 0.10668347198581807 0.14642981906751465
leaf_weight=12975.013642922044 4031.0677024871111 10454.379705280066 2724.9513635188341 220.37359431385994 472.76199972629547 22508.455238506198
leaf_count=5614 1238 6627 2522 390 522 3332
internal_value=0 2.59757 2.4888 2.25684 2.55132 2.90734
internal_weight=0 26847.5 13872.5 2945.32 10927.1 26539.5
internal_count=20245 15675 10061 2912 7149 4570
cat_boundaries=0 1
cat_threshold=270
shrinkage=0.05


Tree=4
num_leaves=7
num_cat=1
split_feature=1 15 14 16 7 7
split_gain=934.87 332.642 193.813 146.79 138.014 71.1424
threshold=0 1500.5000000000002 16743.000000000004 1.0000000180025095e-35 4432.0000000000009 17479.500000000004
decision_type=1 2 2 2 2 2
left_child=1 5 3 -3 -4 -1
right_child=-2 2 4 -5 -6 -7
leaf_value=0.1254413521850298 0.13203307682830689 0.1264677803205719 0.11921992303301317 0.11129476742764147 0.067814961669933352 0.11802189356476048
leaf_weight=10819.834047198296 27699.104579970241 1889.5024907886982 193.1308803409338 10193.080757781863 403.11104176938534 4606.4285149127245
leaf_count=4124 4588 729 135 7460 692 2517
internal_value=0 2.36505 2.24589 2.27335 1.68931 2.46452
internal_weight=0 28105.1 12678.8 12082.6 596.242 15426.3
internal_count=20245 15657 9016 8189 827 6641
cat_boundaries=0 1
cat_threshold=2318
shrinkage=0.05


Tree=5
num_leaves=7
num_cat=1
split_feature=3 13 14 7 12 13
split_gain=429.343 343.695 120.608 86.102 77.951 72.9268
threshold=0 3212.5000000000005 27198.000000000004 125992.00000000001 33512.500000000007 391.00000000000006
decision_type=9 2 2 2 2 2
left_child=1 5 3 -3 -4 -1
right_child=-2 2 4 -5 -6 -7
leaf_value=0.11728344328158841 0.12200414479939892 0.10077281084962364 0.091467643778310515 0.1105611985356153 0.038380306179600879 0.11222304297440358
leaf_weight=12501.94118745625 18340.129059433937 5818.9854153543711 192.10055892169476 3659.509844109416 108.03663627803326 16537.378051549196
leaf_count=3553 2805 4200 202 1951 229 7305
internal_value=0 2.23285 2.07128 2.09104 1.44717 2.28803
internal_weight=0 38818 9778.63 9478.5 300.137 29039.3
internal_count=20245 17440 6582 6151 431 10858
cat_boundaries=0 1
cat_threshold=270
shrinkage=0.05


Tree=6
num_leaves=7
num_cat=1
split_feature=3 13 0 9 14 13
split_gain=376.373 323.436 160.441 202.43 88.8575 75.7194
threshold=0 3212.5000000000005 315000.00000000006 125339.50000000001 27198.000000000004 391.00000000000006
decision_type=9 2 2 2 2 2
left_child=1 5 4 -4 -3 -1
right_child=-2 2 3 -5 -6 -7
leaf_value=0.10917319624953395 0.11331807683059066 0.099422156074323045 0.062729974323885343 0.097921368921549998 0.059728732371158715 0.10411214208293691
leaf_weight=13071.05254432559 18480.692945986986 8130.0690487474203 760.85609681904316 882.75032778084278 143.48106420040131 17004.897326171398
leaf_count=3575 2798 4703 1049 548 223 7349
internal_value=0 2.07408 1.91798 1.63261 1.97468 2.12623
internal_weight=0 39993.1 9917.16 1643.61 8273.55 30075.9
internal_count=20245 17447 6523 1597 4926 10924
cat_boundaries=0 1
cat_threshold=270
shrinkage=0.05


Tree=7
num_leaves=7
num_cat=1
split_feature=2 0 15 7 0 7
split_gain=559.015 206.481 294.576 186.892 54.5427 36.835
threshold=0 145000.00000000003 829.50000000000011 125992.00000000001 45000.000000000007 500.50000000000006
decision_type=9 2 2 2 2 2
left_child=1 4 5 -4 -1 -3
right_child=-2 2 3 -5 -6 -7
leaf_value=0.10269322153404831 0.10660286722151412 0.10187771301197962 0.079783867476646009 0.094704648212316445 0.097291787006699937 0.094525206874990386
leaf_weight=6912.147937387228 21478.065539300442 4442.6168037354946 5516.6388936042786 3387.3112619668245 14431.729118391871 2762.8091586828232
leaf_count=2037 2997 1287 4666 1826 6073 1359
internal_value=0 1.9158 1.83085 1.7092 1.98082 1.98117
internal_weight=0 37453.3 16109.4 8903.95 21343.9 7205.43
internal_count=20245 17248 9138 6492 8110 2646
cat_boundaries=0 1
cat_threshold=30
shrinkage=0.05


Tree=8
num_leaves=7
num_cat=1
split_feature=2 16 0 7 14 0
split_gain=519.761 205.839 154.082 165.598 66.9626 33.7798
threshold=0 1500.5000000000002 145000.00000000003 125992.00000000001 10000.500000000002 45000.000000000007
decision_type=9 2 2 2 2 2
left_child=1 4 -3 -4 5 -1
right_child=-2 2 3 -5 -6 -7
leaf_value=0.097015234390373628 0.1005699609049765 0.090827742241735565 0.074258685903641472 0.089080291374090778 0.077272653434713637 0.092536077789577398
leaf_weight=5606.4200922846794 21479.991669282317 7417.8461909890175 4323.6990782022476 3340.5646921694279 641.76758985221386 16890.362170904875
leaf_count=1556 2976 3296 3703 1762 494 6458
internal_value=0 1.80424 1.71381 1.61438 1.86396 1.87305
internal_weight=0 38220.7 15082.1 7664.26 23138.5 22496.8
internal_count=20245 17269 8761 5465 8508 8014
cat_boundaries=0 1
cat_threshold=30
shrinkage=0.05


Tree=9
num_leaves=7
num_cat=1
split_feature=2 16 14 16 15 14
split_gain=494.995 189.422 94.8979 77.1576 60.7665 50.0802
threshold=0 1695.5000000000002 18758.000000000004 23618.000000000004 575.50000000000011 9998.0000000000018
decision_type=9 2 2 2 2 2
left_child=1 5 4 -4 -3 -1
right_child=-2 2 3 -5 -6 -7
leaf_value=0.088692557810398587 0.09554481327379799 0.089554037915008267 0.069504253847845962 0.020343837243728773 0.080537333666900357 0.07559416902545342
leaf_weight=23475.711274430156 21795.405092403293 2220.8691706806421 579.40300390124321 92.567073464393616 11779.202550768852 753.15514701604843
leaf_count=8300 2980 818 540 183 6892 532
internal_value=0 1.71097 1.62173 1.25464 1.63935 1.76571
internal_weight=0 38900.9 14672 671.97 14000.1 24228.9
internal_count=20245 17265 8433 723 7710 8832
cat_boundaries=0 1
cat_threshold=30
shrinkage=0.05


Tree=10
num_leaves=7
num_cat=1
split_feature=1 18 0 13 7 0
split_gain=912.722 238.067 103.761 118.191 82.0927 151.057
threshold=0 2000.5000000000002 355000.00000000006 3133.5000000000005 793.50000000000011 95000.000000000015
decision_type=1 2 2 2 2 2
left_child=1 4 -3 -4 -1 -6
right_child=-2 2 3 -5 5 -7
leaf_value=0.087151189261008691 0.091019765586548756 0.074049677224772181 0.077346558585003 0.046385560755731393 0.083299383787050485 0.072883945807036263
leaf_weight=4878.2212754189968 29767.137558460236 8950.7134269028902 515.68690803647041 766.26643061637878 10098.16952098906 5312.5828043222427
leaf_count=1446 4607 5671 303 977 3905 3336
internal_value=0 1.56673 1.44288 1.1768 1.62997 1.59418
internal_weight=0 30521.6 10232.7 1281.95 20289 15410.8
internal_count=20245 15638 6951 1280 8687 7241
cat_boundaries=0 1
cat_threshold=14
shrinkage=0.05


Tree=11
num_leaves=7
num_cat=2
split_feature=1 14 4 0 7 0
split_gain=890.403 250.35 173.679 97.3179 50.0705 31.5442
threshold=0 1600.5000000000002 1 75000.000000000015 500.50000000000006 45000.000000000007
decision_type=1 2 9 2 2 2
left_child=1 5 3 -3 -2 -1
right_child=4 2 -4 -5 -6 -7
leaf_value=0.082984458328267993 0.082104262520362278 0.074755686842983546 0.085395556149391996 0.06533502823346192 0.087934333195774053 0.077787731523426343
leaf_weight=4025.4415775090456 4319.5915181189775 3770.0023285448551 1968.5600834488869 10047.496615588665 24980.339636802673 10634.635911509395
leaf_count=1180 1227 1920 543 7597 3364 4414
internal_value=0 1.48971 1.40281 1.35713 1.7409 1.58429
internal_weight=0 30446.1 15786.1 13817.5 29299.9 14660.1
internal_count=20245 15654 10060 9517 4591 5594
cat_boundaries=0 1 2
cat_threshold=14 14
shrinkage=0.05


Tree=12
num_leaves=7
num_cat=3
split_feature=1 15 6 16 4 13
split_gain=860.912 209.131 123.327 73.7725 56.9128 57.7323
threshold=0 2469.5000000000005 1 1742.5000000000002 2 50.500000000000007
decision_type=1 2 9 2 9 2
left_child=1 4 3 -3 5 -1
right_child=-2 2 -4 -5 -6 -7
leaf_value=0.077817213071047164 0.083578957645744592 0.070310939805756117 0.082538205653439875 0.060220582024421647 0.078917745770355638 0.069841947732284873
leaf_weight=2899.5387240201235 28895.118977501988 2518.9988935887814 1152.6945412307978 6448.8146564364433 7031.9978640079498 10437.82160961628
leaf_count=952 4587 1362 326 5170 2314 5534
internal_value=0 1.42414 1.30711 1.25969 1.48298 1.43044
internal_weight=0 30489.9 10120.5 8967.81 20369.4 13337.4
internal_count=20245 15658 6858 6532 8800 6486
cat_boundaries=0 1 2 3
cat_threshold=14 14 10
shrinkage=0.05


Tree=13
num_leaves=7
num_cat=1
split_feature=3 13 14 13 9 18
split_gain=435.624 267.796 98.7799 62.8311 61.7015 58.1848
threshold=0 3212.5000000000005 16743.000000000004 50.500000000000007 275254.00000000006 1.0000000180025095e-35
decision_type=9 2 2 2 2 2
left_child=1 3 5 -1 -4 -3
right_child=-2 2 4 -5 -6 -7
leaf_value=0.076542355954421479 0.080839936676685806 0.073907461196484101 0.037870992568116352 0.071807504640834449 0.07148096766620507 0.063729317622995024
leaf_weight=11064.718721464276 18658.243928715587 1709.787396684289 539.67652520537376 19103.289828836918 182.8075347840786 7854.9660293459892
leaf_count=2942 2818 699 696 7953 100 5037
internal_value=0 1.42302 1.28404 1.47088 0.927504 1.31098
internal_weight=0 40455.2 10287.2 30168 722.484 9564.75
internal_count=20245 17427 6532 10895 796 5736
cat_boundaries=0 1
cat_threshold=14
shrinkage=0.05


Tree=14
num_leaves=7
num_cat=1
split_feature=2 16 15 8 18 11
split_gain=545.694 184.527 62.8359 64.5236 50.8559 35.6417
threshold=0 1500.5000000000002 1000.5000000000001 281392.00000000006 52809.500000000007 8972.0000000000018
decision_type=9 2 2 2 2 2
left_child=1 4 5 -4 -1 -3
right_child=-2 2 3 -5 -6 -7
leaf_value=0.070692141333417363 0.078194497534346152 0.062201597797178348 0.060792859638575586 0.075302686678393418 0.034650455414692236 0.0736226688767396
leaf_weight=22619.174890145659 20340.386182263494 1027.0160941183567 11233.957155272365 822.26675660908222 98.300168573856354 2039.9039422720671
leaf_count=8367 2973 582 7226 302 109 686
internal_value=0 1.35339 1.26816 1.23565 1.41072 1.39596
internal_weight=0 37840.6 15123.1 12056.2 22717.5 3066.92
internal_count=20245 17272 8796 7528 8476 1268
cat_boundaries=0 1
cat_threshold=30
shrinkage=0.05


Tree=15
num_leaves=7
num_cat=2
split_feature=2 0 15 7 4 0
split_gain=552.646 190.258 299.053 191.863 47.3114 42.0467
threshold=0 145000.00000000003 829.50000000000011 125992.00000000001 1 45000.000000000007
decision_type=9 2 2 2 9 2
left_child=1 4 -3 -4 5 -1
right_child=-2 2 3 -5 -6 -7
leaf_value=0.070553326410481371 0.075766760476827386 0.068599226690386414 0.049206650891079291 0.064283305190897574 0.07577119575947687 0.065333193343367887
leaf_weight=5566.3259918987751 20101.264628261328 7299.9318150728941 5529.6386269181967 3412.4182759672403 3142.5261385291815 12565.651160567999
leaf_count=1793 2993 2659 4671 1820 648 5661
internal_value=0 1.30296 1.2218 1.0992 1.36553 1.33798
internal_weight=0 37516.5 16242 8942.06 21274.5 18132
internal_count=20245 17252 9150 6491 8102 7454
cat_boundaries=0 1 2
cat_threshold=30 14
shrinkage=0.05


Tree=16
num_leaves=7
num_cat=1
split_feature=1 14 7 0 7 0
split_gain=987.362 215.779 99.801 240.672 83.2528 116.008
threshold=0 4998.0000000000009 17479.500000000004 165000.00000000003 156080.00000000003 205000.00000000003
decision_type=1 2 2 2 2 2
left_child=1 2 -1 -4 5 -3
right_child=-2 4 3 -5 -6 -7
leaf_value=0.06496694399062912 0.07340018937006039 0.053698712072827781 0.061595798653045368 0.039545248396548473 0.059812859402053657 0.036087802410693627
leaf_weight=13327.359700083733 27037.977714151144 2656.8562659025192 8313.9266435205936 1453.8392946720123 2064.1293340176344 1442.9971041977406
leaf_count=5426 4575 1840 4117 1436 1233 1618
internal_value=0 1.19829 1.24306 1.16628 1.03247 0.950006
internal_weight=0 29259.1 23095.1 9767.77 6163.98 4099.85
internal_count=20245 15670 10979 5553 4691 3458
cat_boundaries=0 1
cat_threshold=14
shrinkage=0.05


Tree=17
num_leaves=7
num_cat=3
split_feature=1 16 6 0 14 1
split_gain=987.015 252.172 155.099 111.78 66.36 58.2785
threshold=0 1500.5000000000002 1 145000.00000000003 1500.5000000000002 2
decision_type=1 2 9 2 2 1
left_child=1 4 3 -3 -1 -2
right_child=5 2 -4 -5 -6 -7
leaf_value=0.064091993732662153 0.067345491069190341 0.055712602658651689 0.06767863374962739 0.045289819024906676 0.057567317845702071 0.073674077771630583
leaf_weight=10838.840935319662 9791.3173666149378 4588.3861132115126 1589.3489303737879 5854.6729578971863 6084.6570697724819 16723.019008144736
leaf_count=4038 2473 2727 530 5059 3311 2107
internal_value=0 1.15583 1.04556 0.996432 1.23492 1.42727
internal_weight=0 28955.9 12032.4 10443.1 16923.5 26514.3
internal_count=20245 15665 8316 7786 7349 4580
cat_boundaries=0 1 2 3
cat_threshold=14 14 2320
shrinkage=0.05


Tree=18
num_leaves=7
num_cat=3
split_feature=1 16 6 0 14 1
split_gain=1024.97 241.146 156.568 111.243 54.6128 51.907
threshold=0 1500.5000000000002 1 75000.000000000015 9364.5000000000018 2
decision_type=1 2 9 2 2 1
left_child=1 4 3 -3 -1 -2
right_child=5 2 -4 -5 -6 -7
leaf_value=0.060065274637970206 0.065658156470933343 0.058269702010213947 0.065679636120007601 0.045160443817661385 0.044939935499799064 0.071785301194970244
leaf_weight=15945.223973870277 9562.2655567377806 2012.6342474669218 1562.0004490762949 8259.5199132859707 619.99862495064735 16309.27488771081
leaf_count=6883 2446 1003 525 6771 504 2113
internal_value=0 1.11171 1.00308 0.953651 1.18998 1.39094
internal_weight=0 28399.4 11834.2 10272.2 16565.2 25871.5
internal_count=20245 15686 8299 7774 7387 4559
cat_boundaries=0 1 2 3
cat_threshold=14 14 2320
shrinkage=0.05


Tree=19
num_leaves=7
num_cat=1
split_feature=3 13 0 7 13 0
split_gain=532.541 275.663 146.044 149.434 50.7504 113.218
threshold=0 2000.5000000000002 145000.00000000003 125992.00000000001 391.00000000000006 75000.000000000015
decision_type=9 2 2 2 2 2
left_child=1 4 -3 -4 -1 -6
right_child=-2 2 3 -5 5 -7
leaf_value=0.062805822818838619 0.068134277135946941 0.056745632646828463 0.040356401038522005 0.05474873158903798 0.061862737812850427 0.051399484027082956
leaf_weight=11428.933069631457 16342.396231040359 7047.4678000211716 4115.4213885068893 3210.5459168255329 7129.2577385008335 4056.4029062688351
leaf_count=3542 2809 3446 3676 1845 2518 2409
internal_value=0 1.14012 1.03214 0.933274 1.20925 1.16137
internal_weight=0 36988 14373.4 7325.97 22614.6 11185.7
internal_count=20245 17436 8967 5521 8469 4927
cat_boundaries=0 1
cat_threshold=14
shrinkage=0.05


Tree=20
num_leaves=7
num_cat=3
split_feature=1 15 0 6 1 0
split_gain=1037.55 222.45 236.835 136.935 62.935 27.1776
threshold=0 829.50000000000011 75000.000000000015 1 2 45000.000000000007
decision_type=1 2 2 9 1 2
left_child=1 -1 5 -4 -2 -3
right_child=4 2 3 -5 -6 -7
leaf_value=0.057872186451861873 0.062123055227227497 0.059720762149741063 0.062793570781709301 0.042300337909028873 0.068668298812806075 0.053171242266512021
leaf_weight=10152.718052983284 9083.9176991581917 3020.9432422071695 986.53067156672478 10212.295045420527 15428.378879547119 3329.7374788671732
leaf_count=4201 2469 1141 331 8240 2104 1759
internal_value=0 1.03925 0.971471 0.88399 1.32538 1.12574
internal_weight=0 27702.2 17549.5 11198.8 24512.3 6350.68
internal_count=20245 15672 11471 8571 4573 2900
cat_boundaries=0 1 2 3
cat_threshold=14 32 2320
shrinkage=0.05


Tree=21
num_leaves=7
num_cat=2
split_feature=2 4 16 0 7 10
split_gain=682.512 179.805 174.896 151.801 57.0301 5.68832
threshold=0 1 982.50000000000011 145000.00000000003 1330.5000000000002 781.00000000000011
decision_type=9 9 2 2 2 2
left_child=1 2 4 -4 -1 -3
right_child=-2 5 3 -5 -6 -7
leaf_value=0.058897962146131327 0.065265987475501289 0.057578974309444947 0.052457646453178679 0.042796078735426235 0.052481594726686558 0.064740229080140474
leaf_weight=6667.1007785499096 17062.482648536563 302.87035429477692 8675.1197226345539 7651.3033153414726 7206.2845938950777 3284.1380884051323
leaf_count=2339 2970 113 4481 5938 3610 794
internal_value=0 1.0554 1.02841 0.958596 1.1113 1.27915
internal_weight=0 33786.8 30199.8 16326.4 13873.4 3587.01
internal_count=20245 17275 16368 10419 5949 907
cat_boundaries=0 1 2
cat_threshold=30 14
shrinkage=0.05


Tree=22
num_leaves=7
num_cat=2
split_feature=2 18 14 10 5 8
split_gain=714.246 193.779 72.6336 110.468 66.9014 63.9884
threshold=0 2000.5000000000002 15139.000000000002 35568.500000000007 1 281392.00000000006
decision_type=9 2 2 2 9 2
left_child=1 2 -1 -4 5 -3
right_child=-2 4 3 -5 -6 -7
leaf_value=0.054192023331545359 0.063988251654525277 0.043284830809843709 0.042423819940263882 -0.038194969067531351 0.06060273159363419 0.05888689764420503
leaf_weight=21676.443362519145 16681.259117543697 9437.1335281282663 355.98522011935711 48.25087596476078 845.08242586255074 706.35722821950912
leaf_count=9542 2978 6798 268 114 252 293
internal_value=0 1.0217 1.07601 0.656018 0.913495 0.886552
internal_weight=0 33069.3 22080.7 404.236 10988.6 10143.5
internal_count=20245 17267 9924 382 7343 7091
cat_boundaries=0 1 2
cat_threshold=30 14
shrinkage=0.05


Tree=23
num_leaves=7
num_cat=3
split_feature=1 15 6 13 1 7
split_gain=1155.29 249.819 185.674 97.5637 78.1827 37.5712
threshold=0 900.50000000000011 1 2957.5000000000005 2 17479.500000000004
decision_type=1 2 9 2 1 2
left_child=1 5 3 -3 -2 -1
right_child=4 2 -4 -5 -6 -7
leaf_value=0.054700358752451217 0.05778065522704319 0.045112970502586738 0.058770788502024711 0.036906422153116784 0.064966816817688289 0.04730904894142228
leaf_weight=7597.0794471204281 8425.7728497982025 7163.0846112221479 1756.8985052555799 7325.3613544255495 14166.846261888742 2222.2121747136116
leaf_count=3082 2493 4516 588 6208 2097 1261
internal_value=0 0.934269 0.858514 0.81871 1.24627 1.06055
internal_weight=0 26064.6 16245.3 14488.4 22592.6 9819.29
internal_count=20245 15655 11312 10724 4590 4343
cat_boundaries=0 1 2 3
cat_threshold=14 14 2320
shrinkage=0.05


Tree=24
num_leaves=7
num_cat=3
split_feature=1 14 4 0 1 16
split_gain=1213.8 242.399 183.718 89.0178 70.924 54.5267
threshold=0 1600.5000000000002 1 205000.00000000003 2 2999.0000000000005
decision_type=1 2 9 2 1 2
left_child=1 5 3 -3 -2 -1
right_child=4 2 -4 -5 -6 -7
leaf_value=0.051478749103900823 0.056853088584711199 0.041390511765105151 0.056881699815936305 0.032304037699697842 0.063814104353242557 0.03996076408765057
leaf_weight=10575.66108314693 8351.9444574117661 8056.9466093927622 1609.1750707477331 4050.4935021400452 13782.797020822763 1138.1144662201405
leaf_count=4772 2485 5701 553 3808 2110 816
internal_value=0 0.90119 0.811322 0.76638 1.22429 1.00719
internal_weight=0 25430.4 13716.6 12107.4 22134.7 11713.8
internal_count=20245 15650 10062 9509 4595 5588
cat_boundaries=0 1 2 3
cat_threshold=14 14 2320
shrinkage=0.05


Tree=25
num_leaves=7
num_cat=3
split_feature=1 16 6 14 4 7
split_gain=1167.32 257.41 120.557 104.747 91.4763 77.763
threshold=0 1803.0000000000002 1 18758.000000000004 2 10702.500000000002
decision_type=1 2 9 2 9 2
left_child=1 4 3 -3 5 -1
right_child=-2 2 -4 -5 -6 -7
leaf_value=0.049523956817552645 0.060008663654841921 0.036908391224009518 0.053238462948988131 0.013197029044761567 0.053499019652734493 0.040510815051314493
leaf_weight=4545.383578568697 21228.23938895762 8291.2643038779497 1185.4760112166405 493.48680983483791 5684.4615893214941 5053.9558579027653
leaf_count=2175 4577 6646 489 676 2276 3406
internal_value=0 0.879249 0.754597 0.710719 0.96114 0.894641
internal_weight=0 25254 9970.23 8784.75 15283.8 9599.34
internal_count=20245 15668 7811 7322 7857 5581
cat_boundaries=0 1 2 3
cat_threshold=14 14 10
shrinkage=0.05


Tree=26
num_leaves=7
num_cat=1
split_feature=2 15 0 9 0 15
split_gain=833.567 223.179 210.92 205.759 47.1192 71.6997
threshold=0 1500.5000000000002 145000.00000000003 146628.00000000003 45000.000000000007 575.50000000000011
decision_type=9 2 2 2 2 2
left_child=1 4 -3 -4 -1 -6
right_child=-2 2 3 -5 5 -7
leaf_value=0.053718024594997971 0.059693808938381922 0.046478390433187244 0.028003925890713322 0.046539726957674998 0.049987019017432341 0.041700888342716701
leaf_weight=4039.4284548610449 14907.926740378141 7023.1587206125259 4542.6260347664356 2233.235657826066 8706.2434980869293 3728.8170259892941
leaf_count=1468 2992 3809 4429 1321 3866 2360
internal_value=0 0.901649 0.808131 0.682262 0.980527 0.950046
internal_weight=0 30273.5 13799 6775.86 16474.5 12435.1
internal_count=20245 17253 9559 5750 7694 6226
cat_boundaries=0 1
cat_threshold=30
shrinkage=0.05


Tree=27
num_leaves=7
num_cat=4
split_feature=1 16 6 14 1 4
split_gain=1281.69 233.048 148.643 120.331 81.0341 74.1421
threshold=0 1500.5000000000002 1 16743.000000000004 2 3
decision_type=1 2 9 2 1 9
left_child=1 5 3 -3 -2 -1
right_child=4 2 -4 -5 -6 -7
leaf_value=0.041969298720507468 0.053330789159841109 0.034307030173351474 0.051502856732148931 0.010212996458415778 0.060878277190041741 0.050419539682154117
leaf_weight=8560.224338516593 7602.4110131114721 8546.5190549045801 1285.6592892855406 551.65125393867493 12550.630819365382 5010.9797255992889
leaf_count=5182 2478 7000 531 773 2133 2148
internal_value=0 0.816533 0.704114 0.656201 1.16118 0.90315
internal_weight=0 23955 10383.8 9098.17 20153 13571.2
internal_count=20245 15634 8304 7773 4611 7330
cat_boundaries=0 1 2 3 4
cat_threshold=14 14 2320 10
shrinkage=0.05


Tree=28
num_leaves=7
num_cat=3
split_feature=1 14 4 0 1 16
split_gain=1254.79 238.676 196.976 110.594 87.9699 64.8
threshold=0 1500.5000000000002 1 75000.000000000015 2 2205.5000000000005
decision_type=1 2 9 2 1 2
left_child=1 5 3 -3 -2 -1
right_child=4 2 -4 -5 -6 -7
leaf_value=0.046898695409337381 0.052019019877517586 0.040845738470994694 0.052669635910268381 0.030059877405836034 0.059956328186175002 0.034647681826272869
leaf_weight=9060.8778883814812 7227.7232563197613 3291.2576780170202 1502.2289390265942 8552.3014093339443 12045.473325029016 1225.3387070447206
leaf_count=4375 2462 2080 548 7721 2129 930
internal_value=0 0.793978 0.706086 0.660586 1.14016 0.908786
internal_weight=0 23632 13345.8 11843.6 19273.2 10286.2
internal_count=20245 15654 10349 9801 4591 5305
cat_boundaries=0 1 2 3
cat_threshold=14 14 272
shrinkage=0.05


Tree=29
num_leaves=7
num_cat=3
split_feature=1 14 5 1 7 16
split_gain=1257.56 254.062 127.575 90.1866 86.7262 55.9156
threshold=0 1500.5000000000002 1 2 3977.5000000000005 5099.5000000000009
decision_type=1 2 9 1 2 2
left_child=1 5 4 -2 -3 -1
right_child=3 2 -4 -5 -6 -7
leaf_value=0.045318374802382821 0.05100983522712027 0.041577099514086766 0.051112490395831989 0.059114653086585811 0.03041481628719063 0.028199124870203103
leaf_weight=9586.7298633158207 7078.142659291625 2109.8672172129154 1045.620602324605 11517.211189240217 9930.1870943903923 501.95815022289753
leaf_count=4840 2485 1354 408 2115 8600 443
internal_value=0 0.769753 0.67815 1.12117 0.64688 0.889332
internal_weight=0 23174.4 13085.7 18595.4 12040.1 10088.7
internal_count=20245 15645 10362 4600 9954 5283
cat_boundaries=0 1 2 3
cat_threshold=14 14 2320
shrinkage=0.05


Tree=30
num_leaves=7
num_cat=3
split_feature=1 18 3 13 1 7
split_gain=1232.74 206.87 105.281 116.188 93.2081 82.2979
threshold=0 1500.5000000000002 1 3764.5000000000005 2 17479.500000000004
decision_type=1 2 9 2 1 2
left_child=1 5 3 -3 -2 -1
right_child=4 2 -4 -5 -6 -7
leaf_value=0.04470797392340236 0.050047009958632198 0.03594361095560223 0.049251428881356064 0.024681566142997918 0.058357326396502984 0.03631477923636578
leaf_weight=8393.2683423012495 6916.7746774256229 4769.0782617479563 875.51958617568016 4405.9622373580933 11028.134637221694 4479.2719908952713
leaf_count=4299 2500 3471 364 4394 2093 3124
internal_value=0 0.751479 0.644297 0.610044 1.10368 0.835748
internal_weight=0 22923.1 10050.6 9175.04 17944.9 12872.5
internal_count=20245 15652 8229 7865 4593 7423
cat_boundaries=0 1 2 3
cat_threshold=14 14 2320
shrinkage=0.05


Tree=31
num_leaves=7
num_cat=3
split_feature=1 4 14 0 1 16
split_gain=1345.76 233.329 224.069 105.233 93.5631 56.0617
threshold=0 1 1600.5000000000002 365000.00000000006 2 982.50000000000011
decision_type=1 9 2 2 1 2
left_child=1 2 5 -4 -2 -1
right_child=4 -3 3 -5 -6 -7
leaf_value=0.042669992474581919 0.049311932059144532 0.05140960404870986 0.030782808952188091 0.012777347253240555 0.05772061080820199 0.034166318782982617
leaf_weight=6147.2010315209627 6707.4109610915184 2259.3232705593109 10049.948654413223 882.76948927342892 10844.688867881894 2830.6717136800289
leaf_count=3281 2471 803 8419 1101 2112 2058
internal_value=0 0.718059 0.682369 0.586579 1.09074 0.799777
internal_weight=0 22169.9 19910.6 10932.7 17552.1 8977.87
internal_count=20245 15662 14859 9520 4583 5339
cat_boundaries=0 1 2 3
cat_threshold=14 14 2320
shrinkage=0.05


Tree=32
num_leaves=7
num_cat=2
split_feature=1 14 0 8 1 16
split_gain=1259.52 221.986 155.02 129.649 101.777 71.9168
threshold=0 1500.5000000000002 75000.000000000015 4787.5000000000009 1 4160.5000000000009
decision_type=1 2 2 2 1 2
left_child=1 5 -3 -4 -2 -1
right_child=4 2 3 -5 -6 -7
leaf_value=0.042154054829812874 0.047967718185243702 0.03934653499095675 0.038173020049932144 0.023901593951960405 0.056909881010648006 0.024229719776462166
leaf_weight=8890.7766505181789 6256.5334377586842 3801.1753197163343 2082.8756946772337 6743.9306620061398 10314.766835138202 597.19718109071255
leaf_count=4786 2430 2337 1414 6613 2108 557
internal_value=0 0.704616 0.618093 0.545385 1.07129 0.820517
internal_weight=0 22116 12628 8826.81 16571.3 9487.97
internal_count=20245 15707 10364 8027 4538 5343
cat_boundaries=0 1 2
cat_threshold=14 272
shrinkage=0.05


Tree=33
num_leaves=7
num_cat=3
split_feature=1 14 3 0 1 11
split_gain=1247.04 244.144 147.124 133.062 111.053 106.632
threshold=0 4998.0000000000009 1 75000.000000000015 2 117980.50000000001
decision_type=1 2 9 2 1 2
left_child=1 2 3 -1 -2 -3
right_child=4 5 -4 -5 -6 -7
leaf_value=0.039458171575019685 0.046986857729909515 0.018868355700490506 0.043711815096547084 0.028418547233689025 0.056338990853398246 0.034236097805550647
leaf_weight=5184.0734977573156 6142.2040834575891 3071.2392817735672 5995.4543617814779 5764.7418262958527 10012.43052457273 1784.7069069445133
leaf_count=3095 2468 3300 3046 4843 2107 1386
internal_value=0 0.687696 0.744664 0.672298 1.05629 0.490329
internal_weight=0 21800.2 16944.3 10948.8 16154.6 4855.95
internal_count=20245 15670 10984 7938 4575 4686
cat_boundaries=0 1 2 3
cat_threshold=14 10 272
shrinkage=0.05


Tree=34
num_leaves=7
num_cat=2
split_feature=2 4 14 0 18 13
split_gain=966.424 226.529 218.905 117.325 66.5193 4.80786
threshold=0 1 1650.5000000000002 305000.00000000006 7790.5000000000009 1170.5000000000002
decision_type=9 9 2 2 2 2
left_child=1 2 4 -4 -1 -2
right_child=5 -3 3 -5 -6 -7
leaf_value=0.039887264471669057 0.052486714474537934 0.050124801580936955 0.031461431773061196 0.017693406111615361 0.019479060169378642 0.054573435057338471
leaf_weight=10634.112750425935 6433.65287617594 2526.0596422404051 10147.630647972226 1825.74430757761 414.85717198252678 4834.6296999305487
leaf_count=6017 1839 893 7920 2007 411 1158
internal_value=0 0.712821 0.680616 0.587241 0.78242 1.06669
internal_weight=0 25548.4 23022.3 11973.4 11049 11268.3
internal_count=20245 17248 16355 9927 6428 2997
cat_boundaries=0 1 2
cat_threshold=30 14
shrinkage=0.05


Tree=35
num_leaves=7
num_cat=1
split_feature=4 13 0 7 14 8
split_gain=719.771 289.997 324.226 212.892 105.805 62.8541
threshold=0 736.50000000000011 145000.00000000003 156080.00000000003 15139.000000000002 793.00000000000011
decision_type=9 2 2 2 2 2
left_child=1 5 4 -4 -3 -1
right_child=-2 2 3 -5 -6 -7
leaf_value=0.040653544489224126 0.052722996787329425 0.038394216268302674 0.019095732167848139 0.037603582773351504 -0.0076834703268586187 0.049892537922904948
leaf_weight=5828.047308512032 8498.6892630159855 10990.310324028134 5371.5833091437817 2186.1235556155443 126.01299884915352 2690.8082958906889
leaf_count=3154 2383 6600 5555 1453 195 905
internal_value=0 0.718276 0.64879 0.488985 0.757438 0.871436
internal_weight=0 27192.9 18674 7557.71 11116.3 8518.86
internal_count=20245 17862 13803 7008 6795 4059
cat_boundaries=0 1
cat_threshold=14
shrinkage=0.05


Tree=36
num_leaves=7
num_cat=3
split_feature=1 4 7 0 1 12
split_gain=1390.73 238.02 250.809 290.904 120.393 76.0627
threshold=0 1 6951.5000000000009 95000.000000000015 2 15731.000000000002
decision_type=1 9 2 2 1 2
left_child=1 2 5 -4 -2 -1
right_child=4 -3 3 -5 -6 -7
leaf_value=0.037321780566997663 0.044547103048328318 0.046983933634279225 0.032373961327127942 0.016212390700469214 0.054627862835146729 0.015889836274783724
leaf_weight=6615.9149099737406 5647.1480925455689 2003.3268512487411 5334.0034043043852 5824.9450463205576 8958.2582317143679 441.62318916618824
leaf_count=4136 2471 814 3852 6382 2106 484
internal_value=0 0.608654 0.571755 0.478753 1.01527 0.719614
internal_weight=0 20219.8 18216.5 11158.9 14605.4 7057.54
internal_count=20245 15668 14854 10234 4577 4620
cat_boundaries=0 1 2 3
cat_threshold=14 14 272
shrinkage=0.05


Tree=37
num_leaves=7
num_cat=2
split_feature=2 4 18 14 7 14
split_gain=1004.4 216.387 216.32 105.245 79.1734 6.06932
threshold=0 1 873.50000000000011 14401.500000000002 500.50000000000006 6000.5000000000009
decision_type=9 9 2 2 2 2
left_child=1 2 4 -4 -1 -2
right_child=5 -3 3 -5 -6 -7
leaf_value=0.042242475470211344 0.051837495470188955 0.047283819495428508 0.02770939536332059 0.0093262671222125761 0.032885816174322728 0.047382769963724584
leaf_weight=3687.5898882299662 9151.0234168916941 2292.2087943404913 11325.270880647004 836.05524894595146 5843.6681828871369 834.31804522126913
leaf_count=1829 2646 897 9393 1061 4103 316
internal_value=0 0.648822 0.617033 0.528912 0.730117 1.02828
internal_weight=0 23984.8 21692.6 12161.3 9531.26 9985.34
internal_count=20245 17283 16386 10454 5932 2962
cat_boundaries=0 1 2
cat_threshold=30 14
shrinkage=0.05


Tree=38
num_leaves=7
num_cat=3
split_feature=1 3 13 1 14 7
split_gain=1424.26 235.5 230.593 120.82 90.1649 60.1228
threshold=0 1 1600.5000000000002 2 13039.500000000002 18230.000000000004
decision_type=1 9 2 1 2 2
left_child=1 2 5 -2 -4 -1
right_child=3 -3 4 -5 -6 -7
leaf_value=0.035684781299057083 0.043257135313873207 0.044596956632321084 0.023304873588523949 0.053597167228448594 0.0066319085752587093 0.022876447830944134
leaf_weight=5808.2743265777826 5404.4739001169801 2066.4255735576153 9653.4154044240713 8340.4551161453128 885.22923475503922 1087.7982891499996
leaf_count=3684 2475 923 8898 2109 1176 980
internal_value=0 0.569517 0.530813 0.991318 0.438087 0.673287
internal_weight=0 19501.1 17434.7 13744.9 10538.6 6896.07
internal_count=20245 15661 14738 4584 10074 4664
cat_boundaries=0 1 2 3
cat_threshold=14 14 272
shrinkage=0.05


Tree=39
num_leaves=7
num_cat=2
split_feature=1 0 7 7 1 15
split_gain=1348.9 227.584 276.873 231.429 140.503 66.6801
threshold=0 75000.000000000015 3977.5000000000005 84879.500000000015 1 14385.000000000002
decision_type=1 2 2 2 1 2
left_child=1 -1 5 -4 -2 -3
right_child=4 2 3 -5 -6 -7
leaf_value=0.035346096483757049 0.041709853474850733 0.034497251858860496 0.010285954944802805 0.027314639420528704 0.053043917278801783 -0.0041848419802028034
leaf_weight=6599.4743411689997 5059.6823971495032 4571.7356614693999 4263.7167437076569 3750.1689929068089 7991.3320241570473 114.19068078696728
leaf_count=4219 2462 3045 5027 3219 2105 168
internal_value=0 0.555993 0.478 0.365094 0.973703 0.671092
internal_weight=0 19299.3 12699.8 8013.89 13051 4685.93
internal_count=20245 15678 11459 8246 4567 3213
cat_boundaries=0 1 2
cat_threshold=14 2064
shrinkage=0.05


Tree=40
num_leaves=7
num_cat=3
split_feature=1 3 18 2 7 0
split_gain=1359.03 213.597 188.313 150.402 107.612 96.6448
threshold=0 1 1500.5000000000002 2 793.50000000000011 145000.00000000003
decision_type=1 9 2 9 2 2
left_child=1 2 4 -2 -1 -4
right_child=3 -3 5 -5 -6 -7
leaf_value=0.039259707385581544 0.035525455969478544 0.042871108145510789 0.026041174808116102 0.050738999290516257 0.026856121915820309 0.014830721824288474
leaf_weight=2354.8706607818604 2195.6312551721931 1936.0058828815818 3301.1616240516305 10561.558554030955 6792.8486231565475 4603.5171416327357
leaf_count=1302 1334 917 2782 3263 5526 5121
internal_value=0 0.53957 0.503002 0.96301 0.600983 0.390249
internal_weight=0 18988.4 17052.4 12757.2 9147.72 7904.68
internal_count=20245 15648 14731 4597 6828 7903
cat_boundaries=0 1 2 3
cat_threshold=14 14 22
shrinkage=0.05


Tree=41
num_leaves=7
num_cat=3
split_feature=2 4 18 6 7 13
split_gain=997.665 221.889 171.903 82.8946 81.2077 8.00824
threshold=0 1 873.50000000000011 2 391.00000000000006 1170.5000000000002
decision_type=9 9 2 9 2 2
left_child=1 2 4 -4 -1 -2
right_child=5 -3 3 -5 -6 -7
leaf_value=0.03901752436220636 0.047665061301943396 0.044655696607953654 0.039973652142044944 0.022053983484884174 0.028919212593989298 0.050732672029393855
leaf_weight=3110.4290807321668 4946.9132215678692 2060.6506158560514 714.44984979182482 10785.719229713082 5531.0479445457458 3732.9944044649601
leaf_count=1699 1839 891 387 10036 4227 1166
internal_value=0 0.577004 0.544236 0.464424 0.65108 0.97856
internal_weight=0 22202.3 20141.6 11500.2 8641.48 8679.91
internal_count=20245 17240 16349 10423 5926 3005
cat_boundaries=0 1 2 3
cat_threshold=30 14 32
shrinkage=0.05


Tree=42
num_leaves=7
num_cat=2
split_feature=3 13 0 8 13 3
split_gain=843.205 309.143 144.357 256.479 72.0725 162.046
threshold=0 2000.5000000000002 205000.00000000003 218205.50000000003 50.500000000000007 1
decision_type=9 2 2 2 2 9
left_child=1 4 -3 -4 -1 -6
right_child=-2 2 3 -5 5 -7
leaf_value=0.038177885966943825 0.047867766860530507 0.026238068156261569 0.0049691702326297386 0.036109134855903169 0.032015615797572484 -0.0050489145691270084
leaf_weight=5178.764067620039 7614.029328212142 6277.8990891426802 2446.0235333964229 906.21245772391558 7273.1040365099907 312.06013803184032
leaf_count=2911 2819 5234 3171 604 5058 448
internal_value=0 0.570306 0.435294 0.267745 0.672616 0.610526
internal_weight=0 22394.1 9630.14 3352.24 12763.9 7585.16
internal_count=20245 17426 9009 3775 8417 5506
cat_boundaries=0 1 2
cat_threshold=14 12
shrinkage=0.05


Tree=43
num_leaves=7
num_cat=2
split_feature=2 0 7 7 4 18
split_gain=927.112 212.194 254.897 282.621 102.267 64.1732
threshold=0 145000.00000000003 1528.5000000000002 125992.00000000001 1 551.50000000000011
decision_type=9 2 2 2 9 2
left_child=1 4 5 -4 -1 -3
right_child=-2 2 3 -5 -6 -7
leaf_value=0.030094238577819996 0.047536889362244712 0.037309978182286117 0.0078290984688309303 0.029432076940363552 0.044497275455504408 0.022832051392369851
leaf_weight=10135.927375584841 7906.1589589864016 2459.9351817369461 3939.7025212794542 2458.8798586502671 1522.2943592891097 1111.0930359438062
leaf_count=7438 2985 1425 4814 1940 653 990
internal_value=0 0.548927 0.442069 0.322616 0.640778 0.656106
internal_weight=0 21627.8 9969.61 6398.58 11658.2 3571.03
internal_count=20245 17260 9169 6754 8091 2415
cat_boundaries=0 1 2
cat_threshold=30 14
shrinkage=0.05


Tree=44
num_leaves=7
num_cat=3
split_feature=1 15 0 7 1 5
split_gain=1449 232.14 220.765 178.135 160.914 114.545
threshold=0 829.50000000000011 145000.00000000003 132043.00000000003 1 2
decision_type=1 2 2 2 1 9
left_child=1 -1 5 -4 -2 -3
right_child=4 2 3 -5 -6 -7
leaf_value=0.030788161824637013 0.037885292625882201 0.022301841542870113 0.0044701286138226935 0.023751420005117381 0.050848049105574104 0.043157196814623627
leaf_weight=5951.3668711036444 4305.7597999125719 5520.0242914929986 3471.9559607133269 1828.8852573111653 6819.1071280241013 774.41655887663364
leaf_count=4238 2420 4928 4501 1657 2149 352
internal_value=0 0.454954 0.37281 0.22245 0.91739 0.499434
internal_weight=0 17546.6 11595.3 5300.84 11124.9 6294.44
internal_count=20245 15676 11438 6158 4569 5280
cat_boundaries=0 1 2 3
cat_threshold=14 16 14
shrinkage=0.05


Tree=45
num_leaves=7
num_cat=3
split_feature=1 15 0 1 9 4
split_gain=1395.18 202.166 229.962 164.605 146.277 66.5092
threshold=0 900.50000000000011 75000.000000000015 1 138478.50000000003 2
decision_type=1 2 2 1 2 9
left_child=1 -1 -3 5 -4 -2
right_child=3 2 4 -5 -6 -7
leaf_value=0.029509200750919857 0.01873034654651623 0.02835885678089552 0.0095606813964792241 0.050341249399465916 0.026269474753710633 0.039438833352983399
leaf_weight=5912.0998439490795 503.77380961924791 3700.5015426799655 6026.3897918015718 6381.6406293287873 1673.6354901194572 3725.1358186155558
leaf_count=4348 469 2822 7091 2099 1431 1985
internal_value=0 0.43987 0.362306 0.901452 0.263848 0.740438
internal_weight=0 17312.6 11400.5 10610.6 7700.03 4228.91
internal_count=20245 15692 11344 4553 8522 2454
cat_boundaries=0 1 2 3
cat_threshold=14 272 4
shrinkage=0.05


Tree=46
num_leaves=7
num_cat=3
split_feature=1 3 2 7 0 15
split_gain=1361.05 217.58 180.195 162.665 250.492 56.7871
threshold=0 1 2 6951.5000000000009 145000.00000000003 575.50000000000011
decision_type=1 9 9 2 2 2
left_child=1 3 -2 5 -5 -1
right_child=2 -3 -4 4 -6 -7
leaf_value=0.031157602954342719 0.02968999816418734 0.038723579071344535 0.047590847733616617 0.022132291572612543 0.005859440836812879 0.021039946234818304
leaf_weight=2902.2570449858904 1855.5547586157918 1641.8527483195066 8462.3046073392034 5914.5370250344276 3940.4008503928781 2656.056331910193
leaf_count=2029 1335 894 3263 5268 4976 2480
internal_value=0 0.426915 0.888069 0.389414 0.312515 0.526457
internal_weight=0 17055.1 10317.9 15413.3 9854.94 5558.31
internal_count=20245 15647 4598 14753 10244 4509
cat_boundaries=0 1 2 3
cat_threshold=14 14 22
shrinkage=0.05


Tree=47
num_leaves=7
num_cat=3
split_feature=1 3 13 1 0 16
split_gain=1387.99 252.552 204.643 170.776 158.728 82.847
threshold=0 1 1999.5000000000002 2 305000.00000000006 2048.5000000000005
decision_type=1 9 2 1 2 2
left_child=1 2 5 -2 -4 -1
right_child=3 -3 4 -5 -6 -7
leaf_value=0.026983454114209344 0.035614320042563145 0.038886649103232404 0.016048385403496967 0.049490031437192654 -0.0029427977418045106 0.010684145095419739
leaf_weight=5826.0150638818741 4041.8595827817917 1666.9128125011921 7050.0617238357663 5986.4948495477438 1303.7031101956964 900.05354756861925
leaf_count=4560 2474 901 7275 2125 1896 1014
internal_value=0 0.407403 0.365979 0.878771 0.261692 0.496047
internal_weight=0 16746.7 15079.8 10028.4 8353.76 6726.07
internal_count=20245 15646 14745 4599 9171 5574
cat_boundaries=0 1 2 3
cat_threshold=14 14 2064
shrinkage=0.05


Tree=48
num_leaves=7
num_cat=4
split_feature=1 6 7 1 16 5
split_gain=1269.85 196.623 202.499 188.589 98.8804 59.3886
threshold=0 1 793.50000000000011 2 1500.5000000000002 3
decision_type=1 9 2 1 2 9
left_child=1 2 -1 5 -4 -2
right_child=3 -3 4 -5 -6 -7
leaf_value=0.031289875519747594 0.017035694954493013 0.037636758209811966 0.020323034467400386 0.048919695689776048 0.011497604698255575 0.036574804690764184
leaf_weight=2530.7305895984173 510.98041491210461 1464.9973540827632 6194.6706960499287 5721.0576045364141 6508.2394422665238 3259.8678576350212
leaf_count=1767 494 837 5695 2128 7380 1944
internal_value=0 0.401498 0.367248 0.860526 0.316028 0.679583
internal_weight=0 16698.6 15233.6 9491.91 12702.9 3770.85
internal_count=20245 15679 14842 4566 13075 2438
cat_boundaries=0 1 2 3 4
cat_threshold=14 14 16 4
shrinkage=0.05


Tree=49
num_leaves=7
num_cat=4
split_feature=1 3 13 1 8 3
split_gain=1316.36 208.798 166.561 163.141 94.8921 85.1375
threshold=0 1 1999.5000000000002 2 218205.50000000003 3
decision_type=1 9 2 1 2 9
left_child=1 2 -1 5 -4 -2
right_child=3 -3 4 -5 -6 -7
leaf_value=0.023273428285854769 0.01428967993067462 0.036663881703008237 0.010920733983974012 0.048478275350671271 0.029519018854333813 0.03742186219472899
leaf_weight=6557.1528109312057 499.67918780446053 1550.852234788239 7544.5977017506957 5473.3873321935534 754.42314910888672 3324.9519633576274
leaf_count=5616 510 906 8566 2119 589 1939
internal_value=0 0.383135 0.346114 0.85498 0.252228 0.688897
internal_weight=0 16407 14856.2 9298.02 8299.02 3824.63
internal_count=20245 15677 14771 4568 9155 2449
cat_boundaries=0 1 2 3 4
cat_threshold=14 14 2320 4
shrinkage=0.05


Tree=50
num_leaves=7
num_cat=3
split_feature=2 4 16 14 18 3
split_gain=981.697 238.939 183.986 92.1339 29.1022 14.5413
threshold=0 1 1.0000000180025095e-35 16743.000000000004 5804.0000000000009 2
decision_type=9 9 2 2 2 9
left_child=1 2 4 -4 -1 -2
right_child=5 -3 3 -5 -6 -7
leaf_value=0.029267377863286481 0.038434072030255881 0.039122218474984247 0.017301830737437653 -0.0017965583548553107 0.01120566173858082 0.046152472024182149
leaf_weight=4050.0688258633018 1747.4489639773965 1682.1805247142911 12243.633554659784 665.83062792569399 236.01844417303801 4460.3627977669239
leaf_count=2988 1002 909 12152 961 262 1971
internal_value=0 0.421461 0.385714 0.326336 0.565456 0.880902
internal_weight=0 18877.7 17195.6 12909.5 4286.09 6207.81
internal_count=20245 17272 16363 13113 3250 2973
cat_boundaries=0 1 2 3
cat_threshold=30 14 270
shrinkage=0.05


Tree=51
num_leaves=7
num_cat=2
split_feature=3 13 14 9 6 13
split_gain=842.407 240.861 114.084 154.312 93.2533 84.3155
threshold=0 2000.5000000000002 13039.500000000002 275254.00000000006 1 50.500000000000007
decision_type=9 2 2 2 9 2
left_child=1 4 -3 -4 5 -1
right_child=-2 2 3 -5 -6 -7
leaf_value=0.030127873116866995 0.043029779340623249 0.016521851034655862 -0.017127988370586857 0.03054568279180947 0.040514601122317098 0.020468986952606932
leaf_weight=3761.1651358753443 5571.5308233462274 7708.02133179456 577.56212256848812 240.38645721226931 1031.4674652069807 5658.6693350151181
leaf_count=2735 2787 7822 1009 184 537 5171
internal_value=0 0.417268 0.292755 -0.062344 0.519242 0.485996
internal_weight=0 18977.3 8525.97 817.949 10451.3 9419.83
internal_count=20245 17458 9015 1193 8443 7906
cat_boundaries=0 1 2
cat_threshold=14 14
shrinkage=0.05


Tree=52
num_leaves=7
num_cat=4
split_feature=1 4 1 7 0 3
split_gain=1294.13 203.326 202.162 194.558 248.973 85.7015
threshold=0 1 2 2855.5000000000005 75000.000000000015 3
decision_type=1 9 1 2 2 9
left_child=1 3 5 -1 -5 -2
right_child=2 -3 -4 4 -6 -7
leaf_value=0.024668161579870524 0.010790328225472325 0.035472528413840236 0.047566554074370583 0.021631999660951931 0.005646441821118401 0.034556142038847201
leaf_weight=3787.3750745654106 470.08771571516991 1322.1547974944115 5010.5176304131746 3825.596054032445 6704.6415065228939 3008.8214004933834
leaf_count=3147 514 805 2129 3385 8306 1959
internal_value=0 0.333928 0.819603 0.29878 0.229079 0.627698
internal_weight=0 15639.8 8489.43 14317.6 10530.2 3478.91
internal_count=20245 15643 4602 14838 11691 2473
cat_boundaries=0 1 2 3 4
cat_threshold=14 14 2064 4
shrinkage=0.05


Tree=53
num_leaves=7
num_cat=3
split_feature=2 6 15 0 13 3
split_gain=956.674 202.977 199.823 219.829 42.4489 13.8251
threshold=0 1 1.0000000180025095e-35 145000.00000000003 7607.0000000000009 2
decision_type=9 9 2 2 2 9
left_child=1 2 4 -4 -1 -2
right_child=5 -3 3 -5 -6 -7
leaf_value=0.028503350389867278 0.036827382701352905 0.036414910162329235 0.020486025300849718 0.0072931750331683108 0.0040291346612876429 0.044713416367162459
leaf_weight=3670.7343308255076 1568.3623800314963 1537.5767140462995 6762.2463014423847 5923.367919832468 186.15439178794622 4084.8188363388181
leaf_count=2763 969 923 6188 7151 231 2020
internal_value=0 0.379727 0.346908 0.286516 0.546442 0.85189
internal_weight=0 18080.1 16542.5 12685.6 3856.89 5653.18
internal_count=20245 17256 16333 13339 2994 2989
cat_boundaries=0 1 2 3
cat_threshold=14 14 268
shrinkage=0.05


Tree=54
num_leaves=7
num_cat=1
split_feature=3 13 7 18 0 7
split_gain=778.419 257.345 240.474 160.466 106.588 220.37
threshold=0 4701.0000000000009 125992.00000000001 917.50000000000011 145000.00000000003 6951.5000000000009
decision_type=9 2 2 2 2 2
left_child=1 4 3 -3 -1 -6
right_child=-2 2 -4 -5 5 -7
leaf_value=0.02531816481136516 0.040901326734565271 0.015845600025900304 0.020233195841831465 -0.013012867001891006 0.023117386384162244 0.00084524053472741884
leaf_weight=8622.1700909473002 5019.2783701382577 713.05426053702831 2025.3235110938549 1484.6429398953915 3607.8977096788585 1604.5687507502735
leaf_count=7101 2824 728 1918 2410 3125 2139
internal_value=0 0.371954 0.156088 -0.0729918 0.438116 0.325226
internal_weight=0 18057.7 4223.02 2197.7 13834.6 5212.47
internal_count=20245 17421 5056 3138 12365 5264
cat_boundaries=0 1
cat_threshold=14
shrinkage=0.05


Tree=55
num_leaves=7
num_cat=2
split_feature=3 13 7 0 5 14
split_gain=798.726 252.909 187.076 116.229 104.552 95.1473
threshold=0 3212.5000000000005 84879.500000000015 335000.00000000006 1 18758.000000000004
decision_type=9 2 2 2 9 2
left_child=1 4 3 -3 -1 -4
right_child=-2 2 5 -5 -6 -7
leaf_value=0.020510629160239935 0.04063966680663729 0.0038192974648246282 0.01915577135940983 -0.02484651124502223 0.038165912454797946 -0.026235019733503513
leaf_weight=11241.003880359232 4932.2263316325843 2104.6055324524641 2943.4109924137592 425.02389162033796 932.08028165623546 120.1651538386941
leaf_count=10325 2841 2670 2838 802 538 231
internal_value=0 0.357138 0.181322 -0.0199416 0.438214 0.347507
internal_weight=0 17766.3 5593.21 2529.63 12173.1 3063.58
internal_count=20245 17404 6541 3472 10863 3069
cat_boundaries=0 1 2
cat_threshold=14 14
shrinkage=0.05


Tree=56
num_leaves=7
num_cat=3
split_feature=1 2 15 6 18 0
split_gain=1278.56 327.35 225.493 190.379 50.6149 13.32
threshold=0 1 575.50000000000011 2 5000.5000000000009 55000.000000000007
decision_type=1 9 2 9 2 2
left_child=1 2 4 -4 -1 -3
right_child=-2 5 3 -5 -6 -7
leaf_value=0.023673845492633128 0.046252555119394953 0.038154637630721105 0.0075074423243335605 0.031767590698167175 0.0027896779377159136 0.030392643889149334
leaf_weight=4701.0936601236463 4410.1916908584535 1127.2820946574211 9814.0316120386124 874.86967322975397 309.20692007988691 1084.3948929943144
leaf_count=3985 2124 690 11639 600 390 817
internal_value=0 0.323631 0.272476 0.190597 0.4477 0.683886
internal_weight=0 17910.9 15699.2 10688.9 5010.3 2211.68
internal_count=20245 18121 16614 12239 4375 1507
cat_boundaries=0 1 2 3
cat_threshold=2078 30 14
shrinkage=0.05


Tree=57
num_leaves=7
num_cat=3
split_feature=1 4 13 0 1 14
split_gain=1174.26 315.842 270.509 198.961 64.2403 9.0424
threshold=0 1 736.50000000000011 75000.000000000015 2 3202.5000000000005
decision_type=1 9 2 2 1 2
left_child=1 5 4 -4 -3 -1
right_child=-2 2 3 -5 -6 -7
leaf_value=0.037046636782528973 0.045448962337030552 -0.0081477609367697924 0.018737558171672036 0.0047752148705351889 0.025191163376436617 0.030015197525886907
leaf_weight=1356.0169584266841 4191.1099050864577 150.69607125967741 3868.4977718666196 7494.5098932012916 4278.7808989807963 689.83314204961061
leaf_count=843 2131 223 3644 9349 3541 514
internal_value=0 0.320417 0.272114 0.190573 0.481908 0.690141
internal_weight=0 17838.3 15792.5 11363 4429.48 2045.85
internal_count=20245 18114 16757 12993 3764 1357
cat_boundaries=0 1 2 3
cat_threshold=286 224 8
shrinkage=0.05


Tree=58
num_leaves=7
num_cat=4
split_feature=1 1 6 15 0 3
split_gain=1123.9 217.095 183.508 184.428 139.391 95.248
threshold=0 1 2 900.50000000000011 95000.000000000015 3
decision_type=1 1 9 2 2 9
left_child=2 5 3 -1 -5 -2
right_child=1 -3 -4 4 -6 -7
leaf_value=0.019805645706405303 0.004670646144003766 0.045190816502960814 0.031925296025625417 0.015484852741354452 0.0025963132617782998 0.03067857619022802
leaf_weight=4436.1875787302852 426.04350730031729 4028.869622644037 1191.1539252474904 3324.3160453438759 5685.9620400816202 2601.9426564015448
leaf_count=4096 521 2118 819 3345 7376 1970
internal_value=0 0.749094 0.26277 0.229036 0.14703 0.540933
internal_weight=0 7056.86 14637.6 13446.5 9010.28 3027.99
internal_count=20245 4609 15636 14817 10721 2491
cat_boundaries=0 1 2 3 4
cat_threshold=14 2320 14 4
shrinkage=0.05


Tree=59
num_leaves=7
num_cat=3
split_feature=1 4 13 0 1 14
split_gain=1161.85 293.686 275.746 189.236 67.242 10.6973
threshold=0 1 736.50000000000011 205000.00000000003 2 3110.5000000000005
decision_type=1 9 2 2 1 2
left_child=1 2 4 -4 -1 -3
right_child=-2 5 3 -5 -6 -7
leaf_value=-0.0098751150494785795 0.044676397871607508 0.035863063197434229 0.012279115652969198 -0.0020666818278078799 0.024212687438654748 0.028025399925530565
leaf_weight=149.73127181082964 3928.9510054253042 1254.5508662648499 7872.9407760463655 3246.7682519182563 4112.0145107507706 666.71189063414931
leaf_count=227 2149 822 8488 4534 3498 527
internal_value=0 0.290962 0.244539 0.161808 0.460974 0.659433
internal_weight=0 17302.7 15381.5 11119.7 4261.75 1921.26
internal_count=20245 18096 16747 13022 3725 1349
cat_boundaries=0 1 2 3
cat_threshold=2078 14 8
shrinkage=0.05


Tree=60
num_leaves=7
num_cat=3
split_feature=1 3 13 0 1 13
split_gain=1115.69 290.62 212.382 139.88 40.6184 18.0529
threshold=0 1 1201.0000000000002 75000.000000000015 2 3920.0000000000005
decision_type=1 9 2 2 1 2
left_child=1 2 4 -4 -1 -3
right_child=-2 5 3 -5 -6 -7
leaf_value=0.023208540198473633 0.044324956606890745 0.03414926569820504 0.016068355630319976 0.0034170092404027931 0.013161840523286101 0.023837951414025723
leaf_weight=3412.4666026979685 3732.4664544761181 1591.7316393330693 3218.161308914423 6804.5108186230063 1580.3161412030458 578.84785715863109
leaf_count=2980 2118 1116 3191 8675 1663 502
internal_value=0 0.28318 0.233369 0.149584 0.402028 0.625109
internal_weight=0 17186 15015.5 10022.7 4992.78 2170.58
internal_count=20245 18127 16509 11866 4643 1618
cat_boundaries=0 1 2 3
cat_threshold=286 14 20
shrinkage=0.05


Tree=61
num_leaves=7
num_cat=3
split_feature=1 4 13 0 1 7
split_gain=1077.68 271.69 227.175 140.506 86.7361 10.2484
threshold=0 1 736.50000000000011 45000.000000000007 2 2326.5000000000005
decision_type=1 9 2 2 1 2
left_child=1 -1 4 -4 -3 -2
right_child=5 2 3 -5 -6 -7
leaf_value=0.031796214575238561 0.03371636719014922 -0.016759247929037182 0.020971729389570357 0.005204723364440513 0.022665615278056297 0.044408765551869678
leaf_weight=1820.6984354555607 239.96008432656527 140.80724626034498 1665.3967952728271 9322.5211631990969 3998.2044807001948 3391.0651951655746
leaf_count=1336 187 234 1498 11478 3540 1972
internal_value=0 0.271238 0.226953 0.151889 0.426773 0.871642
internal_weight=0 16947.6 15126.9 10987.9 4139.01 3631.03
internal_count=20245 18086 16750 12976 3774 2159
cat_boundaries=0 1 2 3
cat_threshold=30 224 8
shrinkage=0.05


Tree=62
num_leaves=7
num_cat=3
split_feature=1 4 13 0 1 14
split_gain=1088.98 274.065 217.344 135.127 87.0377 11.3592
threshold=0 1 736.50000000000011 205000.00000000003 2 8000.5000000000009
decision_type=1 9 2 2 1 2
left_child=1 2 4 -4 -1 -3
right_child=-2 5 3 -5 -6 -7
leaf_value=-0.018116136601386622 0.043498100461537383 0.03263006723919927 0.010564876347612785 -0.0015731073774407627 0.021886180488780108 0.018215950211184016
leaf_weight=136.55219891667366 3494.2638797461987 1644.2452753335238 7644.4231605343521 3275.3492029309273 3874.5736889839172 149.0739158205688
leaf_count=231 2136 1202 8494 4540 3497 145
internal_value=0 0.256171 0.211464 0.138483 0.410675 0.625151
internal_weight=0 16724.2 14930.9 10919.8 4011.13 1793.32
internal_count=20245 18109 16762 13034 3728 1347
cat_boundaries=0 1 2 3
cat_threshold=2078 14 8
shrinkage=0.05


Tree=63
num_leaves=7
num_cat=2
split_feature=1 2 15 7 7 17
split_gain=1037.66 281.343 199.034 131.671 64.3512 12.9001
threshold=0 1 575.50000000000011 125992.00000000001 55171.000000000007 1.0000000180025095e-35
decision_type=1 9 2 2 2 2
left_child=1 2 4 -4 -1 -3
right_child=-2 5 3 -5 -6 -7
leaf_value=0.019969918951512251 0.042744557629773638 0.03656558024905656 0.0032574435044477345 0.017692352879227765 -0.0077082308880702562 0.027766174572623079
leaf_weight=4369.6855831891298 3386.1466946154833 618.17060735821724 8094.0340372882783 1962.9154732190073 220.60351947695017 1276.7765341177583
leaf_count=4064 2170 420 10242 1942 323 1084
internal_value=0 0.247352 0.200114 0.121497 0.372795 0.609518
internal_weight=0 16542.2 14647.2 10056.9 4590.29 1894.95
internal_count=20245 18075 16571 12184 4387 1504
cat_boundaries=0 1 2
cat_threshold=30 30
shrinkage=0.05


Tree=64
num_leaves=7
num_cat=3
split_feature=1 5 15 0 1 7
split_gain=981.724 253.734 204.873 133.548 95.2629 10.2507
threshold=0 1 575.50000000000011 145000.00000000003 2 2326.5000000000005
decision_type=1 9 2 2 1 2
left_child=1 2 4 -4 -1 -2
right_child=5 -3 3 -5 -6 -7
leaf_value=0.024086412280163637 0.031620304753836335 0.031393867518756238 0.011256889087958355 -0.00023696334558399802 0.009609165605631546 0.043101327961062974
leaf_weight=2839.4178390689194 208.22153377532959 1482.240668989718 5220.7187075652182 4898.4888661466539 1968.984834510833 2932.1086770631373
leaf_count=2456 180 1114 5729 6633 2217 1916
internal_value=0 0.23399 0.194485 0.113859 0.364565 0.844113
internal_weight=0 16409.9 14927.6 10119.2 4808.4 3140.33
internal_count=20245 18149 17035 12362 4673 2096
cat_boundaries=0 1 2 3
cat_threshold=30 14 20
shrinkage=0.05


Tree=65
num_leaves=7
num_cat=3
split_feature=1 3 18 6 7 13
split_gain=960.934 301.328 179.67 96.2178 73.6238 12.7819
threshold=0 1 917.50000000000011 2 793.50000000000011 3920.0000000000005
decision_type=1 9 2 9 2 2
left_child=-1 2 4 -4 -2 -3
right_child=1 5 3 -5 -6 -7
leaf_value=0.041826641374373322 0.022269369296732146 0.031355662080511409 0.024418266650621887 0.0021729756911174737 0.010745001205255114 0.022563144073732114
leaf_weight=2997.0989276356995 2201.4890987500548 1502.1615351513028 509.52591342478991 7671.0615725032985 3740.7237150408328 570.25279624387622
leaf_count=2069 1967 1196 427 9919 4151 516
internal_value=0 0.220379 0.167832 0.0718205 0.300292 0.575947
internal_weight=0 16195.2 14122.8 8180.59 5942.21 2072.41
internal_count=20245 18176 16464 10346 6118 1712
cat_boundaries=0 1 2 3
cat_threshold=96 14 32
shrinkage=0.05


Tree=66
num_leaves=7
num_cat=3
split_feature=1 2 15 5 7 7
split_gain=933.736 231.378 117.854 119.363 64.7317 10.3881
threshold=0 1 575.50000000000011 2 18230.000000000004 2326.5000000000005
decision_type=1 9 2 9 2 2
left_child=1 2 4 -4 -1 -2
right_child=5 -3 3 -5 -6 -7
leaf_value=0.018885881720187903 0.030594553863705937 0.028398395545344179 0.0048243095338503673 0.027227162880801015 0.0027839207817196236 0.04251829137155215
leaf_weight=3592.1692564859986 195.33738293871284 1758.6209711991251 9482.8181672021747 626.06566811352968 755.42607051879168 2815.2806420698762
leaf_count=3440 178 1500 11713 494 953 1967
internal_value=0 0.225928 0.183955 0.124869 0.321761 0.832129
internal_weight=0 16215.1 14456.5 10108.9 4347.6 3010.62
internal_count=20245 18100 16600 12207 4393 2145
cat_boundaries=0 1 2 3
cat_threshold=30 30 14
shrinkage=0.05


Tree=67
num_leaves=7
num_cat=2
split_feature=1 2 16 0 12 0
split_gain=889.606 227.652 164.079 146.074 30.9227 14.0755
threshold=0 1 1.0000000180025095e-35 245000.00000000003 16543.500000000004 55000.000000000007
decision_type=1 9 2 2 2 2
left_child=1 2 4 -4 -1 -3
right_child=-2 5 3 -5 -6 -7
leaf_value=0.016004651864404217 0.040715277277926912 0.032328422655527801 0.0084647876153746988 -0.0054711440051133028 0.02982039738849649 0.023264178212845876
leaf_weight=2962.8953892365098 2858.5698154382408 857.04608492553234 8404.9431338682771 2422.2685558982193 469.1417930983007 856.1227512024343
leaf_count=3012 2136 686 9703 3544 351 813
internal_value=0 0.208889 0.167218 0.106941 0.357864 0.552748
internal_weight=0 15972.4 14259.2 10827.2 3432.04 1713.17
internal_count=20245 18109 16610 13247 3363 1499
cat_boundaries=0 1 2
cat_threshold=30 30
shrinkage=0.05


Tree=68
num_leaves=7
num_cat=3
split_feature=1 2 15 6 18 18
split_gain=898.18 246.392 129.966 124.883 50.9414 17.8712
threshold=0 1 679.50000000000011 2 5000.5000000000009 7001.0000000000009
decision_type=1 9 2 9 2 2
left_child=1 2 4 -4 -1 -3
right_child=-2 5 3 -5 -6 -7
leaf_value=0.016074207258588935 0.040557080217720726 0.028834629833088956 0.0026629812337652225 0.024513476278639947 -0.0054250053619555594 0.0050297607962828351
leaf_weight=4117.0693309530616 2775.0494633354247 1641.3232931159437 8928.4339673779905 696.41754141449928 295.28954211622477 82.821399584412575
leaf_count=4168 2133 1419 11410 585 421 109
internal_value=0 0.19458 0.150487 0.0854447 0.292708 0.550629
internal_weight=0 15761.4 14037.2 9624.85 4412.36 1724.14
internal_count=20245 18112 16584 11995 4589 1528
cat_boundaries=0 1 2 3
cat_threshold=286 30 14
shrinkage=0.05


Tree=69
num_leaves=7
num_cat=3
split_feature=2 0 4 8 5 12
split_gain=550.238 158.812 107.194 99.7738 31.3986 22.7493
threshold=0 45000.000000000007 1 4787.5000000000009 2 8580.0000000000018
decision_type=9 2 9 2 9 2
left_child=1 5 3 -3 -2 -1
right_child=4 2 -4 -5 -6 -7
leaf_value=0.015720342085372371 0.038681085402843672 0.012662306554113474 0.025826762172810536 0.0032249554747311006 0.027606529771508473 0.026166036521437515
leaf_weight=830.48111958429217 1431.5299314334989 4402.0058835111558 769.36247265711427 7698.6495222896338 1852.8110286723822 1399.7708900570869
leaf_count=854 1181 4763 656 9840 1788 1163
internal_value=0 0.19904 0.156481 0.133052 0.650726 0.445527
internal_weight=0 15100.3 12870 12100.7 3284.34 2230.25
internal_count=20245 17276 15259 14603 2969 2017
cat_boundaries=0 1 2 3
cat_threshold=30 14 1120
shrinkage=0.05


Tree=70
num_leaves=7
num_cat=2
split_feature=1 5 0 7 11 7
split_gain=821.257 187.563 134.979 153.825 17.574 11.7041
threshold=0 1 45000.000000000007 6951.5000000000009 197.50000000000003 2326.5000000000005
decision_type=1 9 2 2 2 2
left_child=1 2 4 -4 -1 -2
right_child=5 -3 3 -5 -6 -7
leaf_value=0.028766792712011269 0.027026175998721827 0.027309332264591753 0.012234265674833072 0.00079161827021961861 0.017010692221405305 0.040391521777534058
leaf_weight=392.86808610334992 175.60401497781277 1285.7725833617151 4927.0118588507175 7272.0465278960764 1665.8394223302603 2437.0305776335299
leaf_count=307 182 1110 5392 9607 1675 1972
internal_value=0 0.181387 0.148129 0.108263 0.385083 0.786852
internal_weight=0 15543.5 14257.8 12199.1 2058.71 2612.63
internal_count=20245 18091 16981 14999 1982 2154
cat_boundaries=0 1 2
cat_threshold=30 14
shrinkage=0.05


Tree=71
num_leaves=7
num_cat=2
split_feature=1 6 0 7 13 7
split_gain=790.032 221.034 179.054 164.857 16.7309 11.0363
threshold=0 1 45000.000000000007 1330.5000000000002 1.0000000180025095e-35 2326.5000000000005
decision_type=1 9 2 2 2 2
left_child=1 2 4 -4 -1 -2
right_child=5 -3 3 -5 -6 -7
leaf_value=0.029291423538258473 0.026376006537616643 0.026651042953743733 0.014199983067859221 0.00053442164250468366 0.01773302156234504 0.039736582263514265
leaf_weight=384.75641379132867 165.66391703113914 1469.8705763071775 2936.6394832246006 8881.7884793020785 1680.7511808611453 2307.3181145638227
leaf_count=325 176 1269 3104 11783 1645 1943
internal_value=0 0.165274 0.125985 0.0786007 0.397722 0.773703
internal_weight=0 15353.8 13883.9 11818.4 2065.51 2472.98
internal_count=20245 18126 16857 14887 1970 2119
cat_boundaries=0 1 2
cat_threshold=286 14
shrinkage=0.05


Tree=72
num_leaves=7
num_cat=2
split_feature=1 3 7 0 15 0
split_gain=771.602 205.308 106.67 134.997 42.8099 11.8935
threshold=0 1 1330.5000000000002 95000.000000000015 829.50000000000011 305000.00000000006
decision_type=1 9 2 2 2 2
left_child=1 2 4 -4 -1 -3
right_child=-2 5 3 -5 -6 -7
leaf_value=0.017642104507161915 0.038348250726139288 0.025142762378566635 0.010170300442523181 -0.0013836131708173686 0.0044579903252298415 0.0062022563927759296
leaf_weight=2223.261338301003 2402.8467402439564 1647.3216131217778 4310.1414894387126 6114.9483366012573 851.54938090592623 87.274181742221117
leaf_count=2217 2129 1534 4836 8368 1051 110
internal_value=0 0.157898 0.116054 0.0678646 0.279817 0.481023
internal_weight=0 15234.5 13499.9 10425.1 3074.81 1734.6
internal_count=20245 18116 16472 13204 3268 1644
cat_boundaries=0 1 2
cat_threshold=286 14
shrinkage=0.05


Tree=73
num_leaves=7
num_cat=3
split_feature=1 2 16 4 12 14
split_gain=700.179 207.264 138.566 84.2528 28.1129 17.2558
threshold=0 1 1.0000000180025095e-35 2 16543.500000000004 3202.5000000000005
decision_type=1 9 2 9 2 2
left_child=-1 2 4 -4 -2 -3
right_child=1 5 3 -5 -6 -7
leaf_value=0.038025383536609336 0.013430717140688962 0.027853755243688567 0.021245006765729525 0.0022959589031397308 0.02706276889765637 0.015238731990031316
leaf_weight=2256.325101941824 2787.0175828337669 1286.7968881465495 614.37301490455866 9870.8148150742054 437.58135979622602 343.42877896502614
leaf_count=2051 2998 1204 569 12668 355 400
internal_value=0 0.16456 0.124236 0.0685744 0.305612 0.500852
internal_weight=0 15340 13709.8 10485.2 3224.6 1630.23
internal_count=20245 18194 16590 13237 3353 1604
cat_boundaries=0 1 2 3
cat_threshold=96 30 32
shrinkage=0.05


Tree=74
num_leaves=7
num_cat=3
split_feature=2 6 16 7 6 18
split_gain=485.398 109.041 103.361 114.549 28.956 25.489
threshold=0 1 1.0000000180025095e-35 225754.50000000003 2 18503.000000000004
decision_type=9 9 2 2 9 2
left_child=1 2 5 -4 -2 -1
right_child=4 -3 3 -5 -6 -7
leaf_value=0.015097264846050888 0.025106618622482941 0.023389634800669155 0.0026116440954476201 0.023401467072541496 0.036298186174305573 -0.017884171810118869
leaf_weight=3034.4057395979762 1694.2370151542127 1015.5435243789107 9621.770341835916 711.56474432721734 1240.1011142041534 59.73384016752243
leaf_count=3184 1808 924 12407 631 1191 100
internal_value=0 0.152924 0.128779 0.0808651 0.598872 0.289211
internal_weight=0 14443 13427.5 10333.3 2934.34 3094.14
internal_count=20245 17246 16322 13038 2999 3284
cat_boundaries=0 1 2 3
cat_threshold=30 14 14
shrinkage=0.05


Tree=75
num_leaves=7
num_cat=4
split_feature=1 6 15 8 1 3
split_gain=651.644 165.179 118.172 141.419 79.5789 20.5781
threshold=0 1 829.50000000000011 218205.50000000003 2 3
decision_type=1 9 2 2 1 9
left_child=1 2 4 -4 -1 -2
right_child=5 -3 3 -5 -6 -7
leaf_value=0.0046359956299266321 0.0096023188684540434 0.023972316461319625 0.00055027907344822958 0.024236795788530607 0.017852484755867294 0.03781009606783186
leaf_weight=2044.3571811728179 93.298601415008307 1347.3218328282237 8368.2453408390284 681.46866729855537 2632.007812615484 2066.8021008297801
leaf_count=2520 131 1259 11097 586 2674 1978
internal_value=0 0.14632 0.113296 0.0466788 0.242455 0.732832
internal_weight=0 15073.4 13726.1 9049.71 4676.36 2160.1
internal_count=20245 18136 16877 11683 5194 2109
cat_boundaries=0 1 2 3 4
cat_threshold=286 14 10 6
shrinkage=0.05


Tree=76
num_leaves=7
num_cat=2
split_feature=2 14 5 8 7 14
split_gain=417.343 131.139 97.0116 96.1727 79.7296 155.133
threshold=0 16743.000000000004 1 281392.00000000006 4432.0000000000009 58182.000000000007
decision_type=9 2 9 2 2 2
left_child=1 2 3 -1 -3 -6
right_child=-2 4 -4 -5 5 -7
leaf_value=0.0064263463295512781 0.028430549366668435 0.010905548554858625 0.024842937356198438 0.032885063409802254 -0.048309721175790576 0.012576807681866748
leaf_weight=12495.532310366631 2748.9226391557604 210.54717493802309 819.12525431625545 353.14901171252131 289.7557611875236 163.73256679624319
leaf_count=15168 2970 240 747 246 680 194
internal_value=0 0.143453 0.164638 0.14296 -0.290426 -0.526531
internal_weight=0 14331.8 13667.8 12848.7 664.036 453.488
internal_count=20245 17275 16161 15414 1114 874
cat_boundaries=0 1 2
cat_threshold=1054 14
shrinkage=0.05


Tree=77
num_leaves=7
num_cat=2
split_feature=1 2 16 8 7 18
split_gain=675.673 142.019 95.7496 126.065 25.1135 19.4075
threshold=0 1 1.0000000180025095e-35 135830.00000000003 220.50000000000003 7356.0000000000009
decision_type=1 9 2 2 2 2
left_child=1 2 4 -4 -1 -3
right_child=-2 5 3 -5 -6 -7
leaf_value=0.018363390150137226 0.036667246189864555 0.023002954976608869 0.00027139464782844979 0.015731408968489426 0.0090725030256509943 -0.0050293674576817153
leaf_weight=1180.3739209212363 2111.8565496690571 1340.9833555184305 8793.0282658115029 1551.2256321310997 1895.0276589952409 64.723673172295094
leaf_count=1190 2137 1406 11645 1584 2182 101
internal_value=0 0.129661 0.0977801 0.0517956 0.252769 0.431178
internal_weight=0 14825.4 13419.7 10344.3 3075.4 1405.71
internal_count=20245 18108 16601 13229 3372 1507
cat_boundaries=0 1 2
cat_threshold=286 30
shrinkage=0.05


Tree=78
num_leaves=7
num_cat=3
split_feature=1 4 1 13 0 8
split_gain=620.663 147.63 102.324 123.671 90.5507 12.1828
threshold=0 1 2 3624.0000000000005 95000.000000000015 990.50000000000011
decision_type=1 9 1 2 2 2
left_child=1 -1 3 -3 -4 -2
right_child=5 2 4 -5 -6 -7
leaf_value=0.022020753568089042 0.017341223018388904 0.014570751722869197 0.0073406026475568049 -0.004526237814817531 -0.0031234644550312508 0.036546048957443948
leaf_weight=1312.3536175377667 86.254165433347225 3780.6880320869386 3516.4263836219907 1092.8211803324521 5017.2470201253891 1937.8277289960533
leaf_count=1330 119 4088 4103 1571 7012 2022
internal_value=0 0.121391 0.0898588 0.205349 0.0237404 0.71104
internal_weight=0 14719.5 13407.2 4873.51 8533.67 2024.08
internal_count=20245 18104 16774 5659 11115 2141
cat_boundaries=0 1 2 3
cat_threshold=30 224 20
shrinkage=0.05


Tree=79
num_leaves=7
num_cat=2
split_feature=1 6 16 7 18 8
split_gain=550.532 174.472 105.205 122.238 75.2023 11.7116
threshold=0 1 1500.5000000000002 132043.00000000003 52809.500000000007 990.50000000000011
decision_type=1 9 2 2 2 2
left_child=1 2 4 -4 -1 -2
right_child=5 -3 3 -5 -6 -7
leaf_value=0.0086439354826797054 0.016593359109819624 0.023297005997686089 -0.0047899445462144443 0.01141602399756749 -0.059298346755941228 0.03533222803783511
leaf_weight=7212.1894458569586 87.349780648946762 1303.4701511636376 4548.7073777616024 1563.5453462041914 40.959069464355707 1835.5051699783653
leaf_count=8471 123 1261 6545 1737 102 2006
internal_value=0 0.117958 0.0836974 -0.0128875 0.165205 0.686052
internal_weight=0 14668.9 13365.4 6112.25 7253.15 1922.85
internal_count=20245 18116 16855 8282 8573 2129
cat_boundaries=0 1 2
cat_threshold=2078 14
shrinkage=0.05


Tree=80
num_leaves=7
num_cat=3
split_feature=1 0 6 7 8 1
split_gain=528.306 149.139 119.929 111.196 19.5389 16.7216
threshold=0 45000.000000000007 1 2326.5000000000005 990.50000000000011 2
decision_type=1 2 9 2 2 1
left_child=1 5 3 -3 -2 -1
right_child=4 2 -4 -5 -6 -7
leaf_value=0.014076719270216843 0.010140655485962297 0.010228025312845857 0.021334314937913365 -0.00063935584025513314 0.035429599122826241 0.023577130662539483
leaf_weight=1395.9138191044331 79.792740611359477 3291.226814109832 897.98261767625809 8264.7201971560717 1785.6545437257737 848.53392573073506
leaf_count=1471 123 3765 887 11174 1988 837
internal_value=0 0.119364 0.0766824 0.0490728 0.683295 0.356724
internal_weight=0 14698.4 12453.9 11555.9 1865.45 2244.45
internal_count=20245 18134 15826 14939 2111 2308
cat_boundaries=0 1 2 3
cat_threshold=2078 14 10
shrinkage=0.05


Tree=81
num_leaves=7
num_cat=2
split_feature=3 0 8 15 6 9
split_gain=310.157 101.663 102.196 93.4488 19.9603 17.6317
threshold=0 45000.000000000007 281392.00000000006 7001.0000000000009 1 26258.500000000004
decision_type=9 2 2 2 9 2
left_child=1 5 3 -3 -2 -1
right_child=4 2 -4 -5 -6 -7
leaf_value=0.014073324885495351 0.020813557560720231 0.0052377390409352239 0.028852105831506703 -0.007701761859806081 0.031040130741284866 0.025477436841200764
leaf_weight=1486.631887389347 1371.6596542876214 10054.711656730622 409.57805604487658 1620.1734107658267 1050.9539234805852 439.02321987971663
leaf_count=1655 1591 12606 324 2460 1225 384
internal_value=0 0.119985 0.0860658 0.0688414 0.507186 0.333466
internal_weight=0 14010.1 12084.5 11674.9 2422.61 1925.66
internal_count=20245 17429 15390 15066 2816 2039
cat_boundaries=0 1 2
cat_threshold=14 14
shrinkage=0.05


Tree=82
num_leaves=7
num_cat=2
split_feature=2 0 8 7 0 6
split_gain=359.75 97.7383 76.4411 144.183 73.6859 25.5917
threshold=0 45000.000000000007 122929.50000000001 6951.5000000000009 355000.00000000006 1
decision_type=9 2 2 2 2 9
left_child=1 -1 3 -3 -4 -2
right_child=5 2 4 -5 -6 -7
leaf_value=0.015319932812087163 0.020918646638144991 0.0080451560677868902 0.01651472895335469 -0.0040605408115402183 -0.011145737455623216 0.032336922396847358
leaf_weight=1899.9134369138628 1467.6070108804852 4450.6530356146395 1597.5510127265006 5498.2834806051105 283.49854839034379 975.47981614619493
leaf_count=2030 1817 5278 1627 7875 448 1170
internal_value=0 0.0957941 0.0620517 0.0270988 0.246919 0.51182
internal_weight=0 13729.9 11830 9948.94 1881.05 2443.09
internal_count=20245 17258 15228 13153 2075 2987
cat_boundaries=0 1 2
cat_threshold=30 14
shrinkage=0.05


Tree=83
num_leaves=7
num_cat=3
split_feature=1 4 13 0 1 10
split_gain=500.309 121.722 79.917 99.791 54.3921 15.0687
threshold=0 1 736.50000000000011 355000.00000000006 2 500.50000000000006
decision_type=1 9 2 2 1 2
left_child=1 5 4 -4 -3 -1
right_child=-2 2 3 -5 -6 -7
leaf_value=-0.0017381965068939713 0.033089390598278458 -0.020808588311330641 0.0029542226244987976 -0.013623047470669553 0.011721280849196155 0.021342070790678042
leaf_weight=75.274065721780062 1757.7963405288756 126.36762281507254 8982.6449156180024 1009.8970081284642 3040.0074632875621 1168.5299196410924
leaf_count=112 2122 222 11405 1646 3496 1242
internal_value=0 0.0978292 0.0693925 0.0255768 0.207887 0.395724
internal_weight=0 14402.7 13158.9 9992.54 3166.38 1243.8
internal_count=20245 18123 16769 13051 3718 1354
cat_boundaries=0 1 2 3
cat_threshold=286 224 8
shrinkage=0.05


Tree=84
num_leaves=7
num_cat=2
split_feature=4 6 0 8 14 12
split_gain=306.931 101.87 100.133 131.802 95.3102 19.5851
threshold=0 1 65000.000000000007 218205.50000000003 4601.0000000000009 2241.5000000000005
decision_type=9 9 2 2 2 2
left_child=-1 2 4 -4 -2 -3
right_child=1 5 3 -5 -6 -7
leaf_value=0.025860570234075383 0.012809195330113999 -0.0033054915912718304 -0.00054020592487697458 0.021747386401753586 -0.023889931432096632 0.023950864329516361
leaf_weight=1991.0526261609048 3420.6593551430851 71.874912122264504 8834.3366457503289 717.19073790684342 186.56544258445501 793.72288971766829
leaf_count=2346 3873 107 12121 669 337 792
internal_value=0 0.0982679 0.0762161 0.0226658 0.218222 0.428799
internal_weight=0 14024.3 13158.8 9551.53 3607.22 865.598
internal_count=20245 17899 17000 12790 4210 899
cat_boundaries=0 1 2
cat_threshold=1248 14
shrinkage=0.05


Tree=85
num_leaves=7
num_cat=3
split_feature=1 6 13 0 8 3
split_gain=441.086 128.255 97.6816 109.683 28.5386 23.8282
threshold=0 1 1201.0000000000002 335000.00000000006 3038.5000000000005 2
decision_type=1 9 2 2 2 9
left_child=5 2 4 -4 -2 -1
right_child=1 -3 3 -5 -6 -7
leaf_value=0.0031365115270064626 0.0068768896616921912 0.019831447799809152 0.0019460622324162309 -0.015063740673287224 0.016644978322078903 0.033257199435825884
leaf_weight=83.165946628898382 3034.8529261797667 1199.8047889638692 7956.6906720362604 1075.8660470843315 992.21304041333497 1534.3409704174846
leaf_count=136 3708 1292 10284 1789 1113 1923
internal_value=0 0.0850147 0.0561047 -0.00159944 0.185672 0.634746
internal_weight=0 14259.4 13059.6 9032.56 4027.07 1617.51
internal_count=20245 18186 16894 12073 4821 2059
cat_boundaries=0 1 2 3
cat_threshold=96 14 6
shrinkage=0.05


Tree=86
num_leaves=7
num_cat=4
split_feature=1 3 13 8 1 3
split_gain=427.824 125.566 92.0414 92.4773 48.3126 17.4333
threshold=0 1 391.00000000000006 218205.50000000003 2 3
decision_type=1 9 2 2 1 9
left_child=1 2 4 -4 -1 -2
right_child=5 -3 3 -5 -6 -7
leaf_value=-0.018632884341785613 0.0047938513797542498 0.01822517127283356 -0.0008806900033062658 0.018966299557356008 0.012051652884894654 0.032461684519411248
leaf_weight=127.36938981339335 76.942123437300324 1422.2424596492201 9363.3142379373312 626.18124116957188 2666.6890952773392 1549.4586815144867
leaf_count=218 127 1615 12623 595 3059 2008
internal_value=0 0.083614 0.052103 0.00726796 0.212586 0.623801
internal_weight=0 14205.8 12783.6 9989.5 2794.06 1626.4
internal_count=20245 18110 16495 13218 3277 2135
cat_boundaries=0 1 2 3 4
cat_threshold=286 14 8 132
shrinkage=0.05


Tree=87
num_leaves=7
num_cat=5
split_feature=1 6 13 1 1 3
split_gain=400.894 97.6251 77.1467 84.9384 47.2673 13.569
threshold=0 1 391.00000000000006 2 3 4
decision_type=1 9 2 1 1 9
left_child=5 2 4 -4 -2 -1
right_child=1 -3 3 -5 -6 -7
leaf_value=0.0082648312523771316 -0.019318563802420207 0.0179750843806313 -0.016591630726351288 0.0020020536844559986 0.011435290646496976 0.03224921829404194
leaf_weight=88.470683336257935 123.21608627215028 1152.5859886929393 646.42384435981512 9548.7383729144931 2747.5502594523132 1444.5776546783745
leaf_count=136 213 1293 1091 12362 3236 1914
internal_value=0 0.0816718 0.0569073 0.0161762 0.201757 0.618553
internal_weight=0 14218.5 13065.9 10195.2 2870.77 1533.05
internal_count=20245 18195 16902 13453 3449 2050
cat_boundaries=0 1 2 3 4 5
cat_threshold=96 14 2 8 6
shrinkage=0.05


Tree=88
num_leaves=7
num_cat=2
split_feature=3 0 6 13 9 14
split_gain=219.543 73.0346 62.6167 102.358 70.6965 21.6717
threshold=0 45000.000000000007 1 4500.5000000000009 211729.00000000003 4601.0000000000009
decision_type=9 2 9 2 2 2
left_child=1 5 4 -4 -3 -1
right_child=-2 2 3 -5 -6 -7
leaf_value=0.014746082123551787 0.021215655978296943 -0.0010591520324015273 0.013127983451929004 -0.0074490380753211424 0.016720629280615976 -0.0088881545259985994
leaf_weight=1691.8233196176589 2138.534986032173 7729.5807484965771 2585.5201275255531 788.7288842946291 602.68739329837263 102.89431761577725
leaf_count=1888 2821 10704 2859 1192 621 160
internal_value=0 0.0799203 0.0511816 0.165871 0.00453237 0.267822
internal_weight=0 13501.2 11706.5 3374.25 8332.27 1794.72
internal_count=20245 17424 15376 4051 11325 2048
cat_boundaries=0 1 2
cat_threshold=270 10
shrinkage=0.05


Tree=89
num_leaves=7
num_cat=2
split_feature=4 0 8 7 8 2
split_gain=223.113 83.7967 133.501 214.17 48.2501 46.1556
threshold=0 145000.00000000003 218205.50000000003 6951.5000000000009 100151.00000000001 1
decision_type=9 2 2 2 2 9
left_child=-1 4 3 -3 5 -2
right_child=1 2 -4 -5 -6 -7
leaf_value=0.022747818212733951 0.0051047386549373831 0.0066958944217845075 0.02093224921404413 -0.011979525452568333 0.022075617881542418 0.018081458180364735
leaf_weight=1803.0195111744106 5598.5981654636562 3227.5921275597066 694.92077842354774 2927.7124863192439 556.47362577170134 777.54911787807941
leaf_count=2345 6991 3946 664 4738 516 1045
internal_value=0 0.0815499 0.00316855 -0.0437379 0.159117 0.134471
internal_weight=0 13782.8 6850.23 6155.3 6932.62 6376.15
internal_count=20245 17900 9348 8684 8552 8036
cat_boundaries=0 1 2
cat_threshold=1248 14
shrinkage=0.05


Tree=90
num_leaves=7
num_cat=3
split_feature=1 6 8 7 3 18
split_gain=359.534 82.3759 79.5847 80.9033 17.9143 13.2749
threshold=0 1 281392.00000000006 6951.5000000000009 2 9761.5000000000018
decision_type=1 9 2 2 9 2
left_child=1 2 3 -1 -2 -4
right_child=4 -3 5 -5 -6 -7
leaf_value=0.0069282366091488372 0.0040879211761494809 0.016882017952738467 0.034297716547265718 -0.0013024464146204357 0.030719749508117629 0.014947745819813797
leaf_weight=4851.684680564329 83.008403565734625 1073.4425001796335 200.17349249497056 7762.4842543080449 1420.8868325948715 159.07357661053538
leaf_count=5912 136 1227 130 10664 2010 166
internal_value=0 0.0726156 0.0504439 0.0372651 0.58573 0.514592
internal_weight=0 14046.9 12973.4 12614.2 1503.9 359.247
internal_count=20245 18099 16872 16576 2146 296
cat_boundaries=0 1 2 3
cat_threshold=30 14 6
shrinkage=0.05


Tree=91
num_leaves=7
num_cat=2
split_feature=1 6 0 8 15 8
split_gain=340.044 100.188 82.1132 78.812 17.3292 13.8917
threshold=0 1 45000.000000000007 4787.5000000000009 317.00000000000006 990.50000000000011
decision_type=1 9 2 2 2 2
left_child=5 2 4 -4 -2 -1
right_child=1 -3 3 -5 -6 -7
leaf_value=0.0077826823621692789 0.020182704437755279 0.017646183324252166 0.0062275508734512168 -0.0025120304837255285 0.0091604235583866399 0.030618700766990522
leaf_weight=70.110601928085089 497.74434296414256 1138.7951127383858 4043.9568636231124 7123.7561579532921 1257.4957293011248 1328.8656115867198
leaf_count=120 525 1304 4966 9938 1480 1912
internal_value=0 0.0698218 0.0446207 0.0130534 0.245722 0.585301
internal_weight=0 14061.7 12923 11167.7 1755.24 1398.98
internal_count=20245 18213 16909 14904 2005 2032
cat_boundaries=0 1 2
cat_threshold=96 14
shrinkage=0.05


Tree=92
num_leaves=7
num_cat=2
split_feature=1 3 18 0 7 7
split_gain=322.864 99.8791 77.7866 69.3359 53.5619 16.3335
threshold=0 1 917.50000000000011 75000.000000000015 793.50000000000011 138798.00000000003
decision_type=1 9 2 2 2 2
left_child=-1 2 4 -4 -2 -3
right_child=1 5 3 -5 -6 -7
leaf_value=0.028500546082838914 0.013302257409046975 0.014043604923776092 0.0066761337597737724 -0.0044199600180335075 0.0024717879422147277 0.033455802517512477
leaf_weight=1342.4543137969449 1781.6231489032507 1268.6133360229433 1867.3500654250383 5721.4075062684715 3177.6066458616406 118.48052478209138
leaf_count=2015 1985 1616 2240 8184 4098 107
internal_value=0 0.0581023 0.0298332 -0.0337913 0.127254 0.311787
internal_weight=0 13935.1 12548 7588.76 4959.23 1387.09
internal_count=20245 18230 16507 10424 6083 1723
cat_boundaries=0 1 2
cat_threshold=96 14
shrinkage=0.05


Tree=93
num_leaves=7
num_cat=2
split_feature=1 14 0 1 8 13
split_gain=315.52 123.966 102.901 126.599 111.124 50.0846
threshold=0 13039.500000000002 75000.000000000015 1 129893.50000000001 3500.5000000000005
decision_type=1 2 2 1 2 2
left_child=1 2 3 -1 -4 -3
right_child=-2 5 4 -5 -6 -7
leaf_value=-0.066285305971677186 0.027524423269943556 -0.00041543145200281795 -0.0020840606010374932 0.010956641075114243 0.012878349023290721 -0.025045343424992574
leaf_weight=44.070884212851524 1362.7975878817961 330.8953783325851 7172.2037175204605 4181.484327994287 1500.5513089038432 548.61843839846551
leaf_count=130 2117 451 9998 4885 1626 1038
internal_value=0 0.0476362 0.0724402 0.200402 0.0100944 -0.315579
internal_weight=0 13777.8 12898.3 4225.56 8672.76 879.514
internal_count=20245 18128 16639 5015 11624 1489
cat_boundaries=0 1 2
cat_threshold=286 2
shrinkage=0.05


Tree=94
num_leaves=7
num_cat=2
split_feature=6 16 6 17 8 18
split_gain=171.571 67.1666 81.7858 83.3713 62.8082 37.6678
threshold=0 1.0000000180025095e-35 1 246.50000000000003 281392.00000000006 16114.000000000002
decision_type=9 2 9 2 2 2
left_child=1 5 4 -4 -3 -1
right_child=-2 2 3 -5 -6 -7
leaf_value=0.01070689346962825 0.020898149405465076 0.0018656604879333173 -0.054553435610879469 -0.0074651699018338583 0.023210737963219426 -0.027194959345883802
leaf_weight=3033.5130575653166 1555.2622226504609 9601.0807610768825 115.031199705787 514.15866841841489 357.46779230888933 67.000268439762294
leaf_count=3668 2089 12979 277 775 327 130
internal_value=0 0.0682616 0.0304046 -0.316451 0.0525843 0.197757
internal_weight=0 13688.3 10587.7 629.19 9958.55 3100.51
internal_count=20245 18156 14358 1052 13306 3798
cat_boundaries=0 1 2
cat_threshold=14 12
shrinkage=0.05


Tree=95
num_leaves=7
num_cat=2
split_feature=5 0 2 7 7 13
split_gain=178.945 61.9027 130.16 386.995 57.7603 83.2679
threshold=0 195000.00000000003 1 92942.500000000015 125992.00000000001 4500.5000000000009
decision_type=9 2 9 2 2 2
left_child=1 4 3 -3 5 -1
right_child=-2 2 -4 -5 -6 -7
leaf_value=0.006204280028596576 0.02122429419091814 -0.043088884867811678 0.0047887694948103576 0.0038359429796772566 0.019518043151420375 -0.0087608347476185698
leaf_weight=6800.0841631004587 1441.3573448974639 655.20702733844519 3101.9120963169262 1333.8693152219057 663.67325909156352 1076.6922658951953
leaf_count=8740 2023 1453 4005 1710 653 1661
internal_value=0 0.0549755 -0.0322659 -0.231262 0.107045 0.0831734
internal_weight=0 13631.4 5090.99 1989.08 8540.45 7876.78
internal_count=20245 18222 7168 3163 11054 10401
cat_boundaries=0 1 2
cat_threshold=14 8
shrinkage=0.05


Tree=96
num_leaves=7
num_cat=3
split_feature=1 3 8 6 15 7
split_gain=267.201 82.772 65.7294 69.3347 37.9411 15.5909
threshold=0 1 218205.50000000003 2 14385.000000000002 146716.00000000003
decision_type=1 9 2 9 2 2
left_child=-1 2 3 -2 -4 -3
right_child=1 5 4 -5 -6 -7
leaf_value=0.026260061374063684 -0.0022681975540446522 0.012658577541393313 0.021339111473213896 0.0061497911791345778 -0.015886458809582938 0.032728338552331718
leaf_weight=1261.7932125683874 8364.0084621943533 1217.088165354915 554.03213765844703 3445.4809908103198 78.097761318087578 105.12506292574108
leaf_count=2041 11628 1598 499 4251 128 100
internal_value=0 0.0460084 0.0206213 0.00382164 0.3348 0.282945
internal_weight=0 13763.8 12441.6 11809.5 632.13 1322.21
internal_count=20245 18204 16506 15879 627 1698
cat_boundaries=0 1 2 3
cat_threshold=96 14 10
shrinkage=0.05


Tree=97
num_leaves=7
num_cat=1
split_feature=5 14 8 7 8 0
split_gain=154.441 59.0811 84.1913 91.7718 62.3164 72.4776
threshold=0 9998.0000000000018 281392.00000000006 6951.5000000000009 129893.50000000001 95000.000000000015
decision_type=9 2 2 2 2 2
left_child=1 4 3 -3 5 -1
right_child=-2 2 -4 -5 -6 -7
leaf_value=0.0070193246476763982 0.020056605964837698 0.0055722655117183125 0.017746075222500247 -0.022857825049236558 0.014185492301593673 -0.0012120524711558985
leaf_weight=4832.3635345064104 1375.5475677223876 446.89350575394928 283.61515566240996 778.03620006237179 1266.6618034876883 5987.9694476397708
leaf_count=6193 2005 559 290 1447 1393 8358
internal_value=0 0.0505228 -0.136038 -0.249712 0.0738487 0.0492817
internal_weight=0 13595.5 1508.54 1224.93 12087 10820.3
internal_count=20245 18240 2296 2006 15944 14551
cat_boundaries=0 1
cat_threshold=14
shrinkage=0.05


Tree=98
num_leaves=7
num_cat=3
split_feature=1 3 7 3 10 7
split_gain=257.959 85.9449 74.9421 91.3572 46.6472 15.7479
threshold=0 1 793.50000000000011 2 19981.500000000004 2326.5000000000005
decision_type=1 9 2 9 2 2
left_child=1 2 4 -4 -1 -2
right_child=5 -3 3 -5 -6 -7
leaf_value=0.010107879948875379 0.0059910650159953095 0.014191050848832237 0.00017152714322396501 -0.017966585895543334 -0.028822003734348942 0.027254525360307272
leaf_weight=2247.3477188982069 94.053239838220179 1293.3458806741983 9297.3791678082198 740.27616239711642 79.676442019641399 1173.6925263013691
leaf_count=2636 177 1638 12430 1264 151 1949
internal_value=0 0.0395549 0.013796 -0.0236777 0.175499 0.509521
internal_weight=0 13658 12364.7 10037.7 2327.02 1267.75
internal_count=20245 18119 16481 13694 2787 2126
cat_boundaries=0 1 2 3
cat_threshold=2078 14 12
shrinkage=0.05


Tree=99
num_leaves=7
num_cat=2
split_feature=1 17 1 14 8 15
split_gain=254.839 71.9398 50.4949 220.177 47.8252 74.3214
threshold=0 600.50000000000011 1 9364.5000000000018 281392.00000000006 9001.5000000000018
decision_type=1 2 1 2 2 2
left_child=1 2 -1 -4 5 -3
right_child=-2 4 3 -5 -6 -7
leaf_value=0.011674357975932935 0.02509381651432593 -0.00014851812502775409 0.0034338476488235364 -0.10796564431429434 0.018149427802454331 -0.014753526495118277
leaf_weight=2353.2707183752209 1240.293440874666 7641.3510667011142 2216.2387106455863 45.261084653437138 310.83526569232345 983.13549197092652
leaf_count=2805 2126 10391 2823 157 302 1641
internal_value=0 0.0299631 0.131375 0.0239805 -0.0223789 -0.0362679
internal_weight=0 13550.1 4614.77 2261.5 8935.32 8624.49
internal_count=20245 18119 5785 2980 12334 12032
cat_boundaries=0 1 2
cat_threshold=30 20
shrinkage=0.05


end of trees

feature importances:
PAY_0=102
LIMIT_BAL=76
BILL_AMT1=64
PAY_AMT1=43
PAY_AMT2=43
PAY_3=37
PAY_6=32
BILL_AMT2=31
PAY_2=29
PAY_AMT3=29
PAY_4=28
PAY_AMT4=27
PAY_AMT6=22
PAY_5=12
BILL_AMT3=7
BILL_AMT6=6
PAY_AMT5=5
BILL_AMT4=4
BILL_AMT5=3

parameters:
[boosting: gbdt]
[objective: binary]
[metric: auc]
[tree_learner: serial]
[device_type: cpu]
[data: ]
[valid: ]
[num_iterations: 100]
[learning_rate: 0.05]
[num_leaves: 7]
[num_threads: 8]
[max_depth: 4]
[min_data_in_leaf: 100]
[min_sum_hessian_in_leaf: 0]
[bagging_fraction: 0.9]
[pos_bagging_fraction: 1]
[neg_bagging_fraction: 1]
[bagging_freq: 1]
[bagging_seed: 3]
[feature_fraction: 0.7]
[feature_fraction_bynode: 1]
[feature_fraction_seed: 2]
[early_stopping_round: 0]
[first_metric_only: 0]
[max_delta_step: 0]
[lambda_l1: 0]
[lambda_l2: 0]
[min_gain_to_split: 0]
[drop_rate: 0.1]
[max_drop: 50]
[skip_drop: 0.5]
[xgboost_dart_mode: 0]
[uniform_drop: 0]
[drop_seed: 4]
[top_rate: 0.2]
[other_rate: 0.1]
[min_data_per_group: 100]
[max_cat_threshold: 32]
[cat_l2: 10]
[cat_smooth: 10]
[max_cat_to_onehot: 4]
[top_k: 20]
[monotone_constraints: ]
[feature_contri: ]
[forcedsplits_filename: ]
[forcedbins_filename: ]
[refit_decay_rate: 0.9]
[cegb_tradeoff: 1]
[cegb_penalty_split: 0]
[cegb_penalty_feature_lazy: ]
[cegb_penalty_feature_coupled: ]
[verbosity: 0]
[max_bin: 100]
[max_bin_by_feature: ]
[min_data_in_bin: 3]
[bin_construct_sample_cnt: 200000]
[histogram_pool_size: -1]
[data_random_seed: 1]
[output_model: LightGBM_model.txt]
[snapshot_freq: -1]
[input_model: ]
[output_result: LightGBM_predict_result.txt]
[initscore_filename: ]
[valid_data_initscores: ]
[pre_partition: 0]
[enable_bundle: 1]
[max_conflict_rate: 0]
[is_enable_sparse: 1]
[sparse_threshold: 0.8]
[use_missing: 1]
[zero_as_missing: 0]
[two_round: 0]
[save_binary: 0]
[header: 0]
[label_column: ]
[weight_column: ]
[group_column: ]
[ignore_column: ]
[categorical_feature: ]
[predict_raw_score: 0]
[predict_leaf_index: 0]
[predict_contrib: 0]
[num_iteration_predict: -1]
[pred_early_stop: 0]
[pred_early_stop_freq: 10]
[pred_early_stop_margin: 10]
[convert_model_language: ]
[convert_model: gbdt_prediction.cpp]
[num_class: 1]
[is_unbalance: 0]
[scale_pos_weight: 50]
[sigmoid: 1]
[boost_from_average: 1]
[reg_sqrt: 0]
[alpha: 0.9]
[fair_c: 1]
[poisson_max_delta_step: 0.7]
[tweedie_variance_power: 1.5]
[max_position: 20]
[lambdamart_norm: 1]
[label_gain: ]
[metric_freq: 1]
[is_provide_training_metric: 0]
[eval_at: ]
[multi_error_top_k: 1]
[num_machines: 1]
[local_listen_port: 12400]
[time_out: 120]
[machine_list_filename: ]
[machines: ]
[gpu_platform_id: -1]
[gpu_device_id: -1]
[gpu_use_dp: 0]

end of parameters

pandas_categorical:null
